%YAML:1.0
---
opencv_ml_svm:
   format: 3
   svmType: C_SVC
   kernel:
      type: LINEAR
   C: 2.6699999999999999e+00
   term_criteria: { epsilon:1.1920928955078125e-07, iterations:1000 }
   var_count: 24
   class_count: 3
   class_labels: !!opencv-matrix
      rows: 3
      cols: 1
      dt: i
      data: [ 0, 1, 2 ]
   sv_total: 3
   support_vectors:
      - [ 7.11990360e-05, -3.14102981e-05, 7.83937401e-04,
          -5.97502338e-04, 7.30067086e-06, -1.38207150e-04,
          -9.43386622e-05, -9.78696903e-07, -5.82447508e-04,
          -2.37244938e-04, -2.86253053e-04, -3.28774040e-04,
          5.76005783e-04, 6.09722338e-04, 2.32263250e-04, 1.67280959e-05,
          4.81431372e-04, 2.33410334e-04, -3.97754076e-04,
          1.57714749e-04, -2.35507468e-04, -2.38488283e-04,
          -8.06625167e-07, 0. ]
      - [ -5.73260513e-05, -3.91055975e-04, 5.25515759e-04,
          -1.07692831e-04, -1.94599968e-04, 2.22483315e-04,
          2.67572523e-06, 0., -5.73260513e-05, -3.99361976e-04,
          -2.86161114e-04, -2.65463023e-04, 4.78941336e-04,
          3.54262738e-04, 1.67540260e-04, 7.56778809e-06, 3.75794771e-04,
          3.69409856e-04, 1.48841893e-04, 2.90144992e-04, 4.68058033e-06,
          -9.07931011e-04, -2.39736386e-04, -4.12046902e-05 ]
      - [ -2.40267473e-04, -4.62945667e-04, -3.99407581e-04,
          5.49501856e-04, -1.64965051e-04, 6.00650557e-04,
          1.16261857e-04, 1.17150182e-06, 5.24430361e-04,
          -3.02341912e-04, -7.06499050e-05, -1.46743449e-04,
          -1.05825711e-05, 5.88745252e-06, 0., 0., -2.46974931e-04,
          2.10995087e-04, 7.69460690e-04, 2.83033587e-04, 3.26873822e-04,
          -9.60625359e-04, -3.26106499e-04, -5.66564304e-05 ]
   uncompressed_sv_total: 9
   uncompressed_support_vectors:
      - [ 35963., 53., 937., 316., 166., 65., 0., 0., 35963., 4., 107.,
          375., 799., 141., 111., 0., 36377., 301., 129., 376., 295.,
          22., 0., 0. ]
      - [ 35494., 45., 660., 376., 529., 392., 4., 0., 35494., 8., 116.,
          249., 834., 587., 195., 17., 35674., 343., 281., 693., 496.,
          13., 0., 0. ]
      - [ 36357., 5., 642., 222., 176., 95., 3., 0., 36357., 0., 22.,
          139., 747., 136., 97., 2., 36801., 242., 94., 224., 139., 0.,
          0., 0. ]
      - [ 35228., 275., 254., 683., 484., 520., 56., 0., 35578., 169.,
          540., 651., 555., 7., 0., 0., 35215., 10., 616., 670., 779.,
          209., 1., 0. ]
      - [ 34908., 65., 237., 731., 802., 694., 63., 0., 35247., 223.,
          530., 807., 688., 5., 0., 0., 34907., 82., 544., 796., 963.,
          208., 0., 0. ]
      - [ 35548., 20., 65., 728., 465., 583., 90., 1., 35894., 200.,
          298., 430., 675., 3., 0., 0., 35548., 0., 525., 391., 691.,
          343., 2., 0. ]
      - [ 36419., 2., 52., 735., 140., 88., 63., 1., 36989., 124., 77.,
          199., 110., 1., 0., 0., 36419., 282., 399., 170., 169., 61.,
          0., 0. ]
      - [ 35969., 350., 343., 395., 442., 1., 0., 0., 35969., 324., 315.,
          480., 412., 0., 0., 0., 35969., 2., 49., 203., 312., 740.,
          192., 33. ]
      - [ 35801., 589., 509., 444., 156., 1., 0., 0., 35796., 493., 434.,
          602., 175., 0., 0., 0., 35796., 4., 127., 540., 172., 673.,
          157., 31. ]
   decision_functions:
      -
         sv_count: 1
         rho: -1.0067934271136807e+00
         alpha: [ 1. ]
         index: [ 0 ]
      -
         sv_count: 1
         rho: 9.5075454827814969e+00
         alpha: [ 1. ]
         index: [ 1 ]
      -
         sv_count: 1
         rho: 1.4106944011192286e+00
         alpha: [ 1. ]
         index: [ 2 ]
