%YAML:1.0
---
opencv_ml_svm:
   format: 3
   svmType: C_SVC
   kernel:
      type: LINEAR
   C: 2.6699999999999999e+00
   term_criteria: { epsilon:1.1920928955078125e-07, iterations:1000 }
   var_count: 120
   class_count: 3
   class_labels: !!opencv-matrix
      rows: 3
      cols: 1
      dt: i
      data: [ 0, 1, 2 ]
   sv_total: 3
   support_vectors:
      - [ 1.46604236e-03, 1.75514957e-03, 1.30563590e-03, 3.65295156e-04,
          1.13658339e-03, 2.47923628e-04, 1.27922778e-03, 3.81574297e-04,
          1.05314795e-03, 3.94994044e-04, 1.47759658e-03, 1.96380378e-03,
          1.29120809e-03, 4.96852212e-04, 1.76685199e-03, 1.15089433e-03,
          4.42972349e-04, 4.21949750e-04, 2.82986934e-04, 4.09510267e-06,
          1.49507285e-03, -3.04436631e-04, 1.33994978e-03,
          7.27825158e-04, 1.53483648e-03, 6.12305186e-04, 1.27218012e-03,
          7.23469013e-04, 2.47176300e-04, 1.37714541e-03,
          -4.02045436e-04, 3.29863251e-04, 1.41572789e-03,
          1.65341934e-03, 1.66984089e-03, 1.60473108e-03, 2.76398915e-03,
          2.67307716e-03, -1.02838047e-03, 1.66719488e-03,
          -2.74921535e-03, 3.58823850e-03, -3.14094592e-03,
          3.86259239e-03, -6.22178661e-04, 2.91465083e-03,
          2.01487518e-03, 1.75595691e-03, 1.86251767e-03, 1.99816702e-03,
          -4.13551461e-03, 8.82154983e-03, -7.59495748e-03,
          3.18152760e-03, -7.95215089e-03, 6.73535466e-03,
          -3.94912623e-03, 6.21634768e-03, 2.69567128e-03,
          2.14386103e-03, 3.38044995e-03, 5.47499908e-03,
          -6.18262962e-03, 5.72536513e-03, -9.62057896e-03,
          2.70626391e-03, -8.35119095e-03, 2.90819997e-04,
          -4.75574844e-03, 8.10597185e-03, 2.59809429e-04,
          -3.15616187e-03, 3.29588726e-03, 4.09306213e-03,
          4.28133935e-04, 1.79014273e-03, -1.86917698e-03,
          3.28933424e-03, -4.59112285e-04, 6.52682595e-03,
          1.59874093e-04, 4.38702339e-03, 2.70415330e-03, 2.03653798e-03,
          1.99745502e-03, 2.44271150e-03, 2.27719359e-03, 1.69002591e-03,
          -1.48157822e-04, 5.11403137e-04, 4.56122099e-04,
          2.00341642e-03, 1.62554882e-03, 4.00864752e-04, 2.09408253e-03,
          1.21354253e-03, 1.95186655e-03, 2.23239860e-03, 1.10277277e-03,
          3.01187509e-04, 2.47197488e-04, -1.27583335e-03,
          4.68467770e-05, -8.71048425e-04, 1.30001141e-03,
          6.04092667e-04, 2.00205925e-03, 1.42142689e-03, 1.86206168e-03,
          3.52046103e-03, 9.75473318e-04, 9.55203257e-04, 1.56648632e-03,
          1.45222247e-03, 1.91242527e-03, 1.88758306e-03, 1.51345110e-03,
          1.70336722e-03, 1.26473699e-03, 1.10286020e-03 ]
      - [ -7.89948367e-03, -2.11426597e-02, 1.15543194e-02,
          -8.00782946e-05, 6.28535496e-03, -2.50853971e-02,
          -7.00590666e-03, -3.76702882e-02, -8.28432292e-03,
          -2.24265065e-02, -6.24854537e-03, -1.41435815e-02,
          -1.69511361e-03, -1.00507513e-02, -9.94232856e-03,
          -1.91154960e-03, 2.98595434e-04, 1.02225291e-02,
          2.71049724e-03, 1.09493174e-02, 3.54904868e-03, 1.44453915e-02,
          -4.23441548e-03, 1.11448469e-04, -4.20770870e-04,
          -3.68599128e-03, 3.46719730e-03, 1.79410335e-02,
          -1.71471445e-03, 2.34433031e-03, -8.22177250e-03,
          -5.46342228e-03, -1.21487705e-02, -9.31503996e-03,
          4.97888960e-03, 1.47423269e-02, 1.87126379e-02, 1.89913847e-02,
          -7.69046834e-03, 1.00748558e-02, -8.25399440e-03,
          -4.91567142e-03, -2.93444889e-03, 7.84022640e-03,
          2.33158073e-03, 1.17317103e-02, 8.59862287e-03, 1.87516324e-02,
          9.48229898e-03, 1.06268730e-02, -4.42631077e-03,
          2.02009324e-02, -2.90121604e-02, 1.59815922e-02,
          -1.97910555e-02, 1.31660290e-02, 1.17708667e-04,
          2.10448820e-02, 2.48834165e-03, 1.29482960e-02, 1.03660310e-02,
          1.08812144e-02, -4.96232370e-03, 1.05827367e-02,
          -2.32302807e-02, 1.63264163e-02, -1.95445679e-02,
          9.69780143e-03, 1.27074576e-03, 1.44068282e-02, 3.53237148e-03,
          8.78453162e-03, 1.29477726e-02, 9.71437432e-03,
          -2.58682878e-03, 1.53832193e-02, 4.84036282e-03,
          3.28317168e-04, -7.05067208e-03, -3.31057888e-03,
          -6.50010584e-03, 1.09316623e-02, 7.03292945e-03,
          1.63941905e-02, 2.00134739e-02, 1.90174673e-02,
          -1.27056509e-03, 9.05374903e-03, -2.27872133e-02,
          -1.58812571e-02, -1.53981904e-02, 2.54254020e-03,
          -8.47082026e-03, -1.51458755e-03, 1.64172729e-03,
          1.28908418e-02, 9.32739768e-03, 5.45334304e-03,
          -1.62064040e-03, -5.22778183e-03, 4.25911369e-03,
          8.78025126e-03, -5.86021226e-03, 3.20604281e-03,
          -3.62964743e-03, -3.81889031e-03, 4.90450906e-03,
          1.05658900e-02, -2.19438621e-03, -1.64560732e-02,
          2.50109588e-04, 8.55298538e-04, 1.22327758e-02, 9.76292184e-04,
          1.68755110e-02, 1.93867926e-02, 3.52899008e-03, 1.27718197e-02,
          -4.02650842e-03, -1.08624445e-02 ]
      - [ -4.06657383e-02, -5.12132756e-02, -3.77234221e-02,
          5.22339754e-02, 3.43022905e-02, 4.78691608e-02,
          -2.05930155e-02, 2.65640970e-02, -1.24685708e-02,
          5.37666259e-04, -2.45248247e-02, -6.38296530e-02,
          -2.31841225e-02, -6.48423955e-02, -3.87368118e-03,
          -2.08947714e-02, -1.38492440e-03, -3.26187233e-03,
          -3.09087504e-02, 7.89895058e-02, -2.30420530e-02,
          2.20659301e-02, -2.56519229e-03, -6.05203025e-03,
          -2.70426404e-02, -4.54638749e-02, 1.74676143e-02,
          5.85889667e-02, 3.00927348e-02, 1.13834941e-03, 3.17047611e-02,
          -9.38517228e-03, 1.91718712e-02, -2.16102265e-02,
          1.28580760e-02, -1.49686681e-02, -6.43988848e-02,
          -2.51383465e-02, -1.57708339e-02, -1.64499372e-01,
          5.50946826e-03, -3.03481221e-02, 1.01634590e-02,
          -2.44343318e-02, -2.45260168e-02, -5.66337118e-03,
          -8.20444166e-06, 3.76497768e-02, -3.35907005e-02,
          8.57596248e-02, 9.61096287e-02, 2.49351934e-02,
          -3.39345746e-02, 4.03365120e-02, 3.29520963e-02,
          4.27700505e-02, 4.07457538e-02, -2.90212743e-02,
          3.16002257e-02, 1.18320644e-01, -7.35544087e-03,
          -3.15235294e-02, 2.21396461e-02, 5.65843247e-02,
          -4.21513617e-02, 8.40662345e-02, -9.44071170e-03,
          -3.92818637e-02, 1.80875435e-02, -4.48441645e-03,
          4.20043766e-02, 8.84610638e-02, 3.29766097e-03,
          -4.68360819e-02, 5.76205738e-02, 5.34669729e-03,
          3.79121453e-02, -1.35172173e-01, 2.88124084e-02,
          -2.93381419e-02, -2.44356785e-02, -4.42887954e-02,
          -1.29573308e-02, -1.88757628e-02, 7.35182548e-03,
          -3.21251564e-02, -1.18475445e-02, -2.22983584e-03,
          1.73405255e-03, 4.58619818e-02, -6.22518733e-03,
          3.01612373e-02, 9.41886846e-03, 2.19565798e-02, 1.15001472e-02,
          -1.66522600e-02, -9.07647684e-02, 2.87394803e-02,
          6.54929643e-03, -6.43947721e-02, -6.72472082e-03,
          -1.68852916e-03, 2.24711951e-02, 3.92518099e-03,
          -2.65267183e-04, -5.94707672e-03, 1.44146048e-02,
          -1.44287217e-02, -4.49101143e-02, -6.26777858e-02,
          -2.97633708e-02, -5.36583960e-02, 9.76479892e-03,
          -4.77125980e-02, 5.03407791e-03, -3.67849171e-02,
          6.32342044e-03, -6.80923760e-02, 9.31900833e-03,
          -6.39990568e-02 ]
   uncompressed_sv_total: 64
   uncompressed_support_vectors:
      - [ 2.65711994e+01, 2.57562447e+01, 1.96975994e+01, 1.63748407e+00,
          1.91088009e+01, 2.24092889e+00, 1.84368000e+01, 2.31853533e+00,
          1.85648003e+01, 3.25690055e+00, 1.88575993e+01, 1.35079432e+01,
          2.37840004e+01, 1.96313152e+01, 1.92192001e+01, 5.04332602e-01,
          1.94064007e+01, 5.07187366e-01, 1.93344002e+01, 6.21109188e-01,
          1.89519997e+01, 3.59020889e-01, 1.78448009e+01, 2.18721581e+00,
          2.31455994e+01, 1.84390774e+01, 1.96224003e+01, 6.23392522e-01,
          1.99680004e+01, 5.11249423e-01, 1.98880005e+01, 3.15366447e-01,
          1.93519993e+01, 4.77593958e-01, 1.78127995e+01, 2.38900733e+00,
          2.25935993e+01, 1.57114363e+01, 2.09279995e+01, 1.39190664e+01,
          1.98719997e+01, 1.30092895e+00, 1.87199993e+01, 1.97585428e+00,
          1.91007996e+01, 1.33305645e+00, 1.80944004e+01, 2.70685959e+00,
          2.11872005e+01, 1.07424469e+01, 5.54799995e+01, 6.52449188e+01,
          4.49616013e+01, 5.83214417e+01, 4.50527992e+01, 5.66725235e+01,
          5.10592003e+01, 6.27614746e+01, 1.78640003e+01, 2.44472980e+00,
          2.23887997e+01, 1.47270918e+01, 4.68111992e+01, 5.85150070e+01,
          4.43871994e+01, 5.73863029e+01, 4.38415985e+01, 5.83594017e+01,
          5.94112015e+01, 6.85191879e+01, 2.01952000e+01, 1.60767250e+01,
          2.12432003e+01, 1.09892340e+01, 1.95839996e+01, 1.30588818e+00,
          1.91840000e+01, 1.97902608e+00, 1.99167995e+01, 9.51355755e-01,
          1.90400009e+01, 2.50758839e+00, 1.81119995e+01, 2.01837945e+00,
          2.02928009e+01, 7.64004374e+00, 1.99328003e+01, 2.50368059e-01,
          1.99776001e+01, 1.47980541e-01, 20., 0., 20., 0.,
          1.85328007e+01, 1.64709568e+00, 1.91856003e+01, 5.52383518e+00,
          1.99680004e+01, 2.37857103e-01, 20., 0., 20., 0.,
          2.02880001e+01, 4.52831089e-01, 1.94351997e+01, 1.81796610e+00,
          2.05951996e+01, 1.76857262e+01, 1.76159992e+01, 4.11005402e+00,
          1.72495995e+01, 4.75866556e+00, 1.86560001e+01, 4.46480274e+00,
          2.10816002e+01, 8.56997871e+00, 2.40240002e+01, 2.04743214e+01 ]
      - [ 1.40400000e+01, 1.36131697e+01, 1.32223997e+01, 2.56876206e+00,
          1.39856005e+01, 1.86542022e+00, 1.41375999e+01, 1.64056885e+00,
          1.43535995e+01, 1.47883976e+00, 1.52784004e+01, 1.16814766e+01,
          1.26000004e+01, 3.36808562e+00, 1.45391998e+01, 7.34617829e-01,
          1.49488001e+01, 3.15877438e-01, 1.48528004e+01, 3.54305178e-01,
          1.49680004e+01, 1.75999999e-01, 1.46464005e+01, 1.47559035e+00,
          1.39568005e+01, 3.12661695e+00, 1.49264002e+01, 3.54659051e-01,
          1.44224005e+01, 8.35690260e-01, 1.46272001e+01, 7.52741754e-01,
          1.48304005e+01, 4.23362553e-01, 1.42335997e+01, 1.64043629e+00,
          1.48448000e+01, 6.18927383e+00, 1.56672001e+01, 4.00575161e+00,
          1.46655998e+01, 1.35357916e+00, 1.43408003e+01, 2.96281219e+00,
          1.50335999e+01, 2.19318748e+00, 1.41104002e+01, 1.82313240e+00,
          1.50528002e+01, 6.93550396e+00, 6.23759995e+01, 7.24755478e+01,
          4.43712006e+01, 6.20751534e+01, 4.48016014e+01, 6.34858284e+01,
          5.31296005e+01, 6.87789993e+01, 1.45056000e+01, 2.00727892e+00,
          1.62656002e+01, 1.01662903e+01, 4.73471985e+01, 6.31423988e+01,
          4.44879990e+01, 6.23077812e+01, 4.56160011e+01, 6.39653625e+01,
          6.20527992e+01, 7.30402298e+01, 1.48352003e+01, 2.19819045e+00,
          1.66688004e+01, 1.12410994e+01, 1.60095997e+01, 1.93243575e+00,
          1.63855991e+01, 1.53470278e+00, 1.56912003e+01, 1.38990736e+00,
          1.58752003e+01, 3.95783091e+00, 1.51775999e+01, 1.13651145e+00,
          1.66240005e+01, 1.15581760e+01, 1.61872005e+01, 1.00486624e+00,
          1.69776001e+01, 2.10471466e-01, 1.69712009e+01, 2.75627583e-01,
          1.64591999e+01, 9.09689724e-01, 1.54896002e+01, 1.43676436e+00,
          1.69936008e+01, 1.21974411e+01, 1.59728003e+01, 9.99630034e-01,
          17., 0., 1.68911991e+01, 4.53610569e-01, 1.65231991e+01,
          8.52209926e-01, 1.62432003e+01, 1.25158048e+00, 1.85711994e+01,
          2.02222481e+01, 1.40383997e+01, 2.36679649e+00, 1.60207996e+01,
          1.79632056e+00, 1.56943998e+01, 1.92276073e+00, 1.48928003e+01,
          2.02457595e+00, 1.53232002e+01, 5.82473516e+00 ]
      - [ 1.50928001e+01, 1.36398602e+01, 1.41744003e+01, 1.53361821e+00,
          1.39807997e+01, 1.94556713e+00, 1.40223999e+01, 1.84680760e+00,
          1.41056004e+01, 1.39314342e+00, 1.38352003e+01, 8.29997826e+00,
          1.33456001e+01, 4.42309380e+00, 15., 0., 15., 0.,
          1.49871998e+01, 1.12410672e-01, 15., 0., 1.39712000e+01,
          1.85880888e+00, 1.23903999e+01, 4.16629171e+00, 4.16783981e+01,
          5.89912033e+01, 1.71088009e+01, 1.80916157e+01, 4.07263985e+01,
          5.95177193e+01, 3.20271988e+01, 5.00758858e+01, 1.42256002e+01,
          1.73121476e+00, 1.26063995e+01, 3.42068410e+00, 4.16367989e+01,
          5.77957573e+01, 3.96591988e+01, 5.91199226e+01, 1.57664003e+01,
          1.58240271e+01, 4.15103989e+01, 5.99602013e+01, 1.39583998e+01,
          5.97178936e+00, 1.34415998e+01, 2.87447214e+00, 3.38047981e+01,
          5.22687836e+01, 4.16815987e+01, 6.05966835e+01, 4.22112007e+01,
          5.97754211e+01, 5.09455986e+01, 6.64144363e+01, 1.39968004e+01,
          3.91509771e+00, 1.27360001e+01, 3.47273731e+00, 5.15663986e+01,
          6.57412567e+01, 4.26735992e+01, 5.99704666e+01, 4.22207985e+01,
          6.11611328e+01, 4.42159996e+01, 6.25818596e+01, 1.42016001e+01,
          1.89170754e+00, 1.23487997e+01, 4.02988052e+00, 4.45839996e+01,
          5.96634254e+01, 1.73584003e+01, 1.86000309e+01, 4.14511986e+01,
          5.86995697e+01, 4.37456017e+01, 6.15484276e+01, 1.53903999e+01,
          7.21384716e+00, 1.27136002e+01, 3.51220369e+00, 1.87775993e+01,
          2.41628494e+01, 3.87312012e+01, 5.59166374e+01, 1.73327999e+01,
          1.11127157e+01, 3.73359985e+01, 5.40682755e+01, 1.47279997e+01,
          1.54285967e+00, 1.33680000e+01, 3.38546538e+00, 15., 0.,
          1.54351997e+01, 9.67988074e-01, 1.66431999e+01, 1.73225105e+00,
          1.52111998e+01, 6.14649951e-01, 1.46672001e+01, 9.82061207e-01,
          1.59247999e+01, 1.48025656e+01, 1.40192003e+01, 1.88372803e+00,
          1.40464001e+01, 1.88961554e+00, 1.40335999e+01, 1.93671656e+00,
          1.38367996e+01, 2.32391167e+00, 1.49664001e+01, 1.14591656e+01 ]
      - [ 9.33600044e+00, 2.09892917e+00, 1.06208000e+01, 1.57841921e+00,
          1.03839998e+01, 7.87746131e-01, 1.01023998e+01, 9.87478733e-01,
          10., 0., 9.72959995e+00, 1.56322861e+00, 1.00576000e+01,
          1.86844385e+00, 1.00959997e+01, 1.14977562e+00, 1.00544004e+01,
          3.96283537e-01, 1.02559996e+01, 8.12935412e-01, 1.00128002e+01,
          1.59487173e-01, 1.02240000e+01, 7.16256917e-01, 1.12896004e+01,
          1.67359853e+00, 1.28128004e+01, 1.12505360e+01, 3.52799988e+01,
          4.30344620e+01, 3.19104004e+01, 3.27892914e+01, 1.35103998e+01,
          1.36155310e+01, 1.03423996e+01, 8.60443056e-01, 2.16063995e+01,
          3.35303841e+01, 4.79967995e+01, 4.49155312e+01, 1.14527998e+01,
          6.70794821e+00, 1.19616003e+01, 4.70524454e+00, 4.91279984e+01,
          4.44102631e+01, 2.03903999e+01, 3.18114128e+01, 1.06960001e+01,
          1.25999367e+00, 1.95167999e+01, 2.29491978e+01, 3.31727982e+01,
          3.21001282e+01, 3.73552017e+01, 4.42926483e+01, 1.79792004e+01,
          2.65549011e+01, 1.11232004e+01, 1.58569288e+00, 1.00207996e+01,
          1.62516689e+00, 1.41744003e+01, 1.46711140e+01, 3.60064011e+01,
          4.34304237e+01, 3.28815994e+01, 3.36938019e+01, 1.60559998e+01,
          1.75644665e+01, 9.72319984e+00, 1.64589846e+00, 1.97392006e+01,
          2.97855396e+01, 5.02560005e+01, 4.59800491e+01, 1.12528000e+01,
          6.07184410e+00, 1.02975998e+01, 2.31953311e+00, 4.82368011e+01,
          4.35169296e+01, 2.21807995e+01, 3.38793755e+01, 1.14960003e+01,
          2.09389210e+00, 1.71327991e+01, 2.12341595e+01, 3.30368004e+01,
          3.43827438e+01, 3.70239983e+01, 4.69015427e+01, 1.82992001e+01,
          2.64538555e+01, 9.83839989e+00, 8.41596961e-01, 1.20080004e+01,
          2.15293670e+00, 1.15760002e+01, 2.08792329e+00, 1.29583998e+01,
          2.05325818e+00, 1.00271997e+01, 7.80294895e-01, 1.04111996e+01,
          1.00504458e+00, 9.76640034e+00, 1.25340772e+00, 1.14320002e+01,
          3.39726019e+00, 1.04127998e+01, 1.69209814e+00, 1.13568001e+01,
          2.47594309e+00, 1.04544001e+01, 1.29673457e+00, 1.03920002e+01,
          1.41475654e+00, 9.71520042e+00, 1.96338713e+00 ]
      - [ 1.37600002e+01, 1.89905238e+00, 1.37455997e+01, 2.34693003e+00,
          1.20495996e+01, 1.91727412e+00, 1.29471998e+01, 2.63795614e+00,
          1.27952003e+01, 1.86152005e+00, 1.31071997e+01, 2.60148191e+00,
          1.46015997e+01, 1.91741431e+00, 4.09231987e+01, 3.39406128e+01,
          3.31167984e+01, 3.11371803e+01, 3.37952003e+01, 3.32676353e+01,
          3.03887997e+01, 2.59975548e+01, 1.39264002e+01, 6.98622799e+00,
          1.39455996e+01, 2.27408028e+00, 3.25824013e+01, 2.54571648e+01,
          1.53135996e+01, 5.66399622e+00, 2.71648006e+01, 2.98589764e+01,
          1.74528008e+01, 1.33312778e+01, 2.53920002e+01, 2.23031826e+01,
          1.30416002e+01, 2.10558057e+00, 1.90048008e+01, 1.57303772e+01,
          3.20800018e+01, 3.11078129e+01, 1.95344009e+01, 2.23180466e+01,
          3.09983997e+01, 2.76442261e+01, 1.69232006e+01, 1.59915133e+01,
          1.26912003e+01, 2.78378201e+00, 4.36879997e+01, 3.58014107e+01,
          3.33632011e+01, 3.04748707e+01, 3.52304001e+01, 3.71262665e+01,
          3.18335991e+01, 2.57507648e+01, 1.72880001e+01, 1.33086538e+01,
          1.39952002e+01, 1.77402842e+00, 3.52560005e+01, 2.88197441e+01,
          3.09712009e+01, 3.29766350e+01, 3.49311981e+01, 3.49628830e+01,
          2.76608009e+01, 2.50785046e+01, 2.59664001e+01, 2.57529278e+01,
          1.46479998e+01, 2.23734117e+00, 2.96847992e+01, 3.18057823e+01,
          1.59680004e+01, 4.71310663e+00, 2.57376003e+01, 2.92544422e+01,
          3.17824001e+01, 3.00393448e+01, 1.39807997e+01, 5.21961975e+00,
          1.38959999e+01, 4.22605991e+00, 3.63759995e+01, 3.48580818e+01,
          3.36048012e+01, 3.36194572e+01, 2.48896008e+01, 2.76724091e+01,
          2.65263996e+01, 2.33982506e+01, 1.96047993e+01, 2.02354698e+01,
          1.30480003e+01, 1.62508333e+00, 3.11312008e+01, 2.89052868e+01,
          3.61328011e+01, 3.45196991e+01, 3.47823982e+01, 3.61793404e+01,
          3.61264000e+01, 3.29167442e+01, 2.19871998e+01, 2.25331001e+01,
          1.25263996e+01, 1.54806423e+00, 1.26127996e+01, 9.94623601e-01,
          1.30640001e+01, 1.58060241e+00, 1.28240004e+01, 1.42134583e+00,
          1.38719997e+01, 2.36499810e+00, 1.36736002e+01, 1.24670088e+00 ]
      - [ 1.15967999e+01, 3.00623178e+00, 1.06000004e+01, 3.39599776e+00,
          1.22927999e+01, 3.34554458e+00, 9.82079983e+00, 2.12261343e+00,
          9.80799961e+00, 2.21953511e+00, 1.03727999e+01, 1.39950716e+00,
          1.07888002e+01, 3.01360154e+00, 2.66576004e+01, 2.77401867e+01,
          1.94335995e+01, 1.81084499e+01, 1.85760002e+01, 1.74089928e+01,
          1.82975998e+01, 1.47224264e+01, 1.21408005e+01, 7.91288662e+00,
          1.18912001e+01, 3.59746623e+00, 1.55903997e+01, 1.37648335e+01,
          1.11759996e+01, 2.00903559e+00, 1.09631996e+01, 2.03966808e+00,
          1.24080000e+01, 1.33226404e+01, 1.76767998e+01, 1.87726059e+01,
          1.13568001e+01, 2.24407983e+00, 1.48304005e+01, 1.26669350e+01,
          1.75263996e+01, 1.60075893e+01, 1.79776001e+01, 1.71433334e+01,
          1.79855995e+01, 1.76362743e+01, 1.04160004e+01, 1.94806159e+00,
          1.22880001e+01, 4.91693544e+00, 2.72928009e+01, 2.95477219e+01,
          1.76079998e+01, 1.41265688e+01, 1.70976009e+01, 1.31753130e+01,
          1.76672001e+01, 1.68100338e+01, 1.24927998e+01, 9.35386276e+00,
          1.19471998e+01, 4.92978811e+00, 1.47327995e+01, 1.22793083e+01,
          1.04144001e+01, 1.99906790e+00, 1.05967999e+01, 1.88908172e+00,
          1.45679998e+01, 1.72552299e+01, 1.91856003e+01, 2.10442009e+01,
          1.16464005e+01, 2.48864770e+00, 1.55855999e+01, 1.23847437e+01,
          2.17663994e+01, 2.03336124e+01, 2.03008003e+01, 1.72118778e+01,
          1.77327995e+01, 1.72246513e+01, 1.09392004e+01, 1.99426758e+00,
          1.16063995e+01, 6.26905727e+00, 2.60128002e+01, 2.95946999e+01,
          1.62192001e+01, 1.47275505e+01, 1.72479992e+01, 1.58455830e+01,
          1.50031996e+01, 1.27153444e+01, 1.46479998e+01, 1.09913826e+01,
          1.16560001e+01, 5.92797279e+00, 1.66751995e+01, 1.34314890e+01,
          1.07391996e+01, 2.57510853e+00, 1.29952002e+01, 2.07267380e+00,
          1.72208004e+01, 1.81927242e+01, 1.75664005e+01, 2.12962914e+01,
          1.05648003e+01, 2.05820322e+00, 1.34944000e+01, 8.63965130e+00,
          1.72928009e+01, 1.54171553e+01, 1.87744007e+01, 1.74980316e+01,
          1.65792007e+01, 1.53297787e+01, 1.17055998e+01, 1.93900192e+00 ]
      - [ 1.03472004e+01, 2.35683107e+00, 1.07760000e+01, 1.21104252e+00,
          1.14703999e+01, 1.32647049e+00, 1.01887999e+01, 5.92920363e-01,
          1.01040001e+01, 1.29134965e+00, 1.01183996e+01, 9.80806530e-01,
          9.43519974e+00, 1.69499290e+00, 9.83839989e+00, 1.44702637e+00,
          1.00992002e+01, 4.92909074e-01, 1.01999998e+01, 9.19130027e-01,
          1.01759996e+01, 6.17919087e-01, 1.06448002e+01, 1.12081802e+00,
          9.72959995e+00, 2.17377186e+00, 1.59616003e+01, 2.25849190e+01,
          3.47248001e+01, 4.23661499e+01, 3.21584015e+01, 3.15459614e+01,
          1.79904003e+01, 2.10258484e+01, 1.09136000e+01, 1.20885694e+00,
          2.07343998e+01, 3.19697838e+01, 4.94272003e+01, 4.43160820e+01,
          1.13344002e+01, 3.37119818e+00, 1.19231997e+01, 5.98107862e+00,
          4.89104004e+01, 4.52794151e+01, 1.99151993e+01, 2.95682125e+01,
          1.03151999e+01, 1.69559693e+00, 1.46608000e+01, 1.58666487e+01,
          3.15711994e+01, 3.26151657e+01, 3.61472015e+01, 4.50910263e+01,
          1.31295996e+01, 1.48464403e+01, 1.10159998e+01, 1.10550618e+00,
          1.03199997e+01, 1.69611323e+00, 1.62416000e+01, 2.52806492e+01,
          3.74991989e+01, 4.54297905e+01, 3.31839981e+01, 3.33397026e+01,
          1.91359997e+01, 2.26754303e+01, 9.86079979e+00, 2.06412768e+00,
          1.98048000e+01, 3.07964211e+01, 5.09216003e+01, 4.60078125e+01,
          1.10688000e+01, 4.37521029e+00, 1.03184004e+01, 4.83448267e+00,
          4.64799995e+01, 4.55809784e+01, 2.34944000e+01, 3.55058136e+01,
          1.06208000e+01, 2.21237588e+00, 1.32447996e+01, 1.27346802e+01,
          3.11264000e+01, 3.17275162e+01, 3.74928017e+01, 4.69488602e+01,
          1.40207996e+01, 1.87724361e+01, 9.91839981e+00, 6.98384881e-01,
          1.03711996e+01, 2.40129352e+00, 1.13439999e+01, 2.12152410e+00,
          1.10304003e+01, 1.68115318e+00, 9.96319962e+00, 3.39773089e-01,
          1.06496000e+01, 1.02470481e+00, 1.03823996e+01, 9.29177165e-01,
          1.06831999e+01, 2.91952705e+00, 1.05824003e+01, 1.34581208e+00,
          1.11087999e+01, 2.27634859e+00, 9.90400028e+00, 1.78448427e+00,
          9.66240025e+00, 1.77076995e+00, 1.01664000e+01, 2.26581359e+00 ]
      - [ 1.04511995e+01, 1.50027287e+00, 1.02720003e+01, 1.70540786e+00,
          9.94239998e+00, 1.03531742e+00, 1.03487997e+01, 1.71205688e+00,
          9.44960022e+00, 1.22811234e+00, 1.07040005e+01, 2.02395248e+00,
          1.13680000e+01, 1.72109735e+00, 1.05375996e+01, 1.35018003e+00,
          1.09136000e+01, 1.37946916e+00, 1.08000002e+01, 1.42996502e+00,
          1.01007996e+01, 1.14587927e+00, 9.93439960e+00, 1.47962725e+00,
          1.00928001e+01, 1.66786933e+00, 9.71679974e+00, 7.25394905e-01,
          1.00719995e+01, 1.05053127e+00, 1.00688000e+01, 1.31090295e+00,
          1.03392000e+01, 1.06138742e+00, 1.00783997e+01, 1.40123284e+00,
          1.08848000e+01, 1.51668358e+00, 1.14863997e+01, 3.76768041e+00,
          1.23280001e+01, 6.08522940e+00, 1.34991999e+01, 7.02751732e+00,
          1.18640003e+01, 5.03387547e+00, 9.80959988e+00, 7.44411051e-01,
          1.57952003e+01, 1.95477581e+01, 4.10704002e+01, 4.28239746e+01,
          2.92432003e+01, 3.61908493e+01, 3.13871994e+01, 3.78477859e+01,
          3.31455994e+01, 3.30499687e+01, 1.93008003e+01, 2.19436169e+01,
          2.04319992e+01, 2.61203785e+01, 2.86912003e+01, 3.06093693e+01,
          1.11135998e+01, 2.04858375e+00, 1.12975998e+01, 1.99705637e+00,
          2.11184006e+01, 2.45824413e+01, 2.67231998e+01, 3.05194778e+01,
          1.24703999e+01, 1.92653155e+00, 2.40512009e+01, 2.79564915e+01,
          3.27424011e+01, 3.73280258e+01, 3.13008003e+01, 3.54170914e+01,
          2.66287994e+01, 3.11833267e+01, 1.19919996e+01, 1.39310300e+00,
          1.17919998e+01, 1.65261495e+00, 1.18448000e+01, 2.23354268e+00,
          1.14511995e+01, 1.67941022e+00, 1.17279997e+01, 1.47282588e+00,
          1.07888002e+01, 1.85736227e+00, 1.27327995e+01, 1.68493450e+00,
          1.11104002e+01, 2.74907470e+00, 1.07776003e+01, 1.54199159e+00,
          1.14736004e+01, 1.24438858e+00, 1.05424004e+01, 2.03297877e+00,
          1.11632004e+01, 1.84406233e+00, 1.21199999e+01, 1.56358564e+00,
          1.15488005e+01, 2.23240209e+00, 1.02704000e+01, 2.19792724e+00,
          1.10576000e+01, 4.11682218e-01, 1.31247997e+01, 2.41471004e+00,
          1.23168001e+01, 1.62444997e+00, 1.20928001e+01, 1.37207437e+00 ]
      - [ 8.50399971e+00, 1.77008021e+00, 1.71664009e+01, 2.70050869e+01,
          2.82336006e+01, 4.03393173e+01, 2.80512009e+01, 4.17447548e+01,
          1.68239994e+01, 2.92042904e+01, 8.98079967e+00, 2.95723367e+00,
          1.76784000e+01, 2.17656002e+01, 2.71583996e+01, 2.97057381e+01,
          1.45727997e+01, 1.66945705e+01, 1.45472002e+01, 1.18376255e+01,
          3.11551991e+01, 3.52024078e+01, 1.70895996e+01, 2.08978844e+01,
          1.70720005e+01, 2.19409294e+01, 3.43296013e+01, 3.96943932e+01,
          2.35839996e+01, 3.01017437e+01, 2.22560005e+01, 3.07137756e+01,
          3.36447983e+01, 3.60220642e+01, 1.68799992e+01, 1.86221371e+01,
          1.00047998e+01, 2.13803101e+00, 3.05743999e+01, 3.33599243e+01,
          4.64431992e+01, 4.70585709e+01, 4.51487999e+01, 4.37802734e+01,
          2.99023991e+01, 3.39882584e+01, 1.20047998e+01, 1.83694768e+00,
          2.24400005e+01, 2.80229053e+01, 2.41711998e+01, 2.79055176e+01,
          1.14048004e+01, 4.36065769e+00, 1.13296003e+01, 3.29608321e+00,
          2.64463997e+01, 3.20620995e+01, 2.13183994e+01, 2.61992264e+01,
          1.89071999e+01, 2.38019371e+01, 3.74384003e+01, 4.00875435e+01,
          2.93647995e+01, 3.94680405e+01, 2.81567993e+01, 3.66614037e+01,
          3.55391998e+01, 3.69975395e+01, 1.86784000e+01, 2.06136398e+01,
          1.08912001e+01, 1.91273689e+00, 3.03391991e+01, 3.33298187e+01,
          4.05008011e+01, 3.73581200e+01, 4.22032013e+01, 3.89482346e+01,
          2.95007992e+01, 3.35717087e+01, 1.16367998e+01, 2.04765368e+00,
          2.63216000e+01, 2.91913509e+01, 2.25552006e+01, 2.35462551e+01,
          1.14336004e+01, 2.78323388e+00, 1.14160004e+01, 3.00661659e+00,
          2.42063999e+01, 2.91890488e+01, 2.46863995e+01, 2.95093346e+01,
          1.92047997e+01, 2.34659176e+01, 3.95680008e+01, 3.96633720e+01,
          3.17024002e+01, 4.10630875e+01, 3.18864002e+01, 3.94434280e+01,
          3.88143997e+01, 3.75730209e+01, 2.01648006e+01, 2.09022121e+01,
          1.02335997e+01, 1.62377059e+00, 1.15967999e+01, 4.46612024e+00,
          1.33551998e+01, 9.30162525e+00, 1.49295998e+01, 1.07506208e+01,
          1.29904003e+01, 6.47529984e+00, 1.05360003e+01, 2.62219453e+00 ]
      - [ 10., 0., 10., 0., 10., 0., 1.04415998e+01, 1.14969099e+00,
          9.61600018e+00, 1.14531398e+00, 9.35359955e+00, 1.91116905e+00,
          10., 0., 10., 0., 10., 0., 10., 0., 10., 0., 10., 0., 10., 0.,
          10., 0., 10., 0., 10., 0., 1.00959997e+01, 5.27999997e-01, 10.,
          0., 1.05551996e+01, 1.26512957e+00, 2.14463997e+01,
          3.31546783e+01, 3.51599998e+01, 4.60979843e+01, 3.24000015e+01,
          4.42334900e+01, 2.11888008e+01, 3.44618454e+01, 1.00288000e+01,
          9.42746282e-01, 1.75760002e+01, 1.86973648e+01, 3.09664001e+01,
          3.19879551e+01, 1.42271996e+01, 8.76883030e+00, 1.57952003e+01,
          1.16359291e+01, 2.84703999e+01, 3.42750206e+01, 2.34496002e+01,
          2.55735703e+01, 1.57327995e+01, 1.77941284e+01, 4.02256012e+01,
          4.27274361e+01, 2.48495998e+01, 3.23009300e+01, 2.13216000e+01,
          2.45970516e+01, 2.79855995e+01, 3.10490932e+01, 2.50063992e+01,
          2.41038418e+01, 1.10416002e+01, 3.01777124e-01, 1.40064001e+01,
          1.34738846e+01, 2.28320007e+01, 3.19369221e+01, 2.60639992e+01,
          3.80035667e+01, 2.11296005e+01, 2.79671383e+01, 1.05072002e+01,
          1.70937073e+00, 11., 0., 1.09871998e+01, 1.12410672e-01,
          1.09392004e+01, 2.38963097e-01, 11., 0., 1.10271997e+01,
          1.07371330e+00, 1.10319996e+01, 2.50950187e-01, 1.09776001e+01,
          1.47980541e-01, 11., 0., 1.09743996e+01, 1.57938719e-01,
          1.11792002e+01, 5.87781727e-01, 1.13535995e+01, 1.34750402e+00,
          1.10319996e+01, 2.50950187e-01, 9.58559990e+00, 2.12176180e+00,
          1.07055998e+01, 9.17239666e-01, 1.08559999e+01, 9.77376103e-01,
          1.16048002e+01, 1.46062207e+00, 1.21183996e+01, 1.59260213e+00,
          1.11056004e+01, 1.66806734e+00 ]
      - [ 1.01599998e+01, 1.25475097e+00, 10., 0., 10., 0.,
          9.94239998e+00, 4.55941051e-01, 9.27840042e+00, 1.47488761e+00,
          9.32800007e+00, 2.07297277e+00, 1.02399998e+01, 9.69948471e-01,
          10., 0., 9.79520035e+00, 6.06347203e-01, 1.04063997e+01,
          1.17764127e+00, 1.06624002e+01, 1.24435771e+00, 1.03872004e+01,
          1.34598517e+00, 1.01535997e+01, 1.22458446e+00, 10., 0., 10.,
          0., 1.01920004e+01, 7.34258831e-01, 1.16512003e+01,
          1.52418458e+00, 1.14399996e+01, 1.88467503e+00, 1.10640001e+01,
          1.84409976e+00, 1.94736004e+01, 2.98692570e+01, 3.36864014e+01,
          4.59502449e+01, 3.10639992e+01, 4.53696556e+01, 1.99824009e+01,
          3.10386810e+01, 1.09888000e+01, 1.69466054e+00, 1.54703999e+01,
          1.38780804e+01, 3.02831993e+01, 3.06652870e+01, 1.52751999e+01,
          1.06934500e+01, 1.72143993e+01, 1.33768320e+01, 2.72831993e+01,
          3.34683838e+01, 2.07551994e+01, 2.07432117e+01, 1.41504002e+01,
          1.27515249e+01, 3.79392014e+01, 4.03758278e+01, 2.17567997e+01,
          2.58723965e+01, 1.86415997e+01, 2.15025101e+01, 2.57791996e+01,
          2.67003384e+01, 2.20400009e+01, 2.01941776e+01, 1.11456003e+01,
          5.24214327e-01, 1.56639996e+01, 1.79473648e+01, 2.68160000e+01,
          3.84071617e+01, 2.95792007e+01, 4.05532227e+01, 2.22383995e+01,
          2.71435146e+01, 1.18079996e+01, 1.25408769e+00, 1.15600004e+01,
          9.29516017e-01, 1.18736000e+01, 1.09326255e+00, 1.08624001e+01,
          3.44479680e-01, 1.15808001e+01, 9.86443818e-01, 1.20623999e+01,
          1.20702374e+00, 1.14863997e+01, 9.63439167e-01, 1.13375998e+01,
          1.12268710e+00, 1.13551998e+01, 8.75575781e-01, 1.07200003e+01,
          4.48998898e-01, 1.09856005e+01, 9.87011969e-01, 1.20607996e+01,
          1.16460443e+00, 1.24415998e+01, 1.46757948e+00, 1.09247999e+01,
          3.46951652e+00, 1.08783998e+01, 9.45522845e-01, 1.06991997e+01,
          1.08771288e+00, 1.15984001e+01, 1.65224624e+00, 1.19856005e+01,
          1.70967615e+00, 1.25327997e+01, 1.76071692e+00 ]
      - [ 1.01152000e+01, 3.13067555e+00, 1.16800003e+01, 2.79542494e+00,
          1.19695997e+01, 3.24922705e+00, 1.03951998e+01, 2.69262266e+00,
          1.03968000e+01, 1.99182069e+00, 9.97119999e+00, 3.65473062e-01,
          1.10992002e+01, 5.75080490e+00, 2.02591991e+01, 1.93834572e+01,
          2.11791992e+01, 2.43533955e+01, 2.12495995e+01, 2.39826298e+01,
          1.95855999e+01, 1.91424007e+01, 1.29152002e+01, 7.44908094e+00,
          1.17264004e+01, 7.51640511e+00, 1.68080006e+01, 1.25567484e+01,
          1.06639996e+01, 1.70055985e+00, 1.07855997e+01, 2.19354343e+00,
          1.20559998e+01, 7.17384577e+00, 1.35087996e+01, 9.52824879e+00,
          1.23775997e+01, 2.68414187e+00, 1.72031994e+01, 1.60510788e+01,
          2.32399998e+01, 2.36672268e+01, 2.41040001e+01, 2.64430027e+01,
          1.98335991e+01, 1.98957558e+01, 1.02544003e+01, 1.13880670e+00,
          1.19312000e+01, 6.31443310e+00, 2.14992008e+01, 2.13638287e+01,
          2.21952000e+01, 2.63351383e+01, 2.11200008e+01, 2.56786919e+01,
          2.17040005e+01, 2.17715492e+01, 1.23760004e+01, 8.06718159e+00,
          1.33823996e+01, 8.10467625e+00, 1.50911999e+01, 1.01017065e+01,
          1.01504002e+01, 2.05128741e+00, 9.52320004e+00, 1.36464715e+00,
          1.37664003e+01, 1.07725496e+01, 1.26960001e+01, 6.81483555e+00,
          1.03072004e+01, 1.59550250e+00, 1.84783993e+01, 1.81893139e+01,
          2.71135998e+01, 2.58722687e+01, 2.51856003e+01, 2.70702343e+01,
          1.96399994e+01, 2.16928368e+01, 1.02975998e+01, 1.22679842e+00,
          1.25520000e+01, 4.95879984e+00, 2.10095997e+01, 1.91425781e+01,
          1.90655994e+01, 2.18501186e+01, 1.94319992e+01, 2.26347466e+01,
          1.90688000e+01, 1.73227272e+01, 1.16079998e+01, 7.18030214e+00,
          1.23151999e+01, 5.42157269e+00, 1.63264008e+01, 9.40462971e+00,
          1.17040005e+01, 1.71964645e+00, 1.00783997e+01, 2.18546414e+00,
          1.41744003e+01, 9.86565685e+00, 1.38719997e+01, 8.98066902e+00,
          1.01999998e+01, 2.51205087e+00, 1.47712002e+01, 1.42770462e+01,
          2.28624001e+01, 2.21467171e+01, 2.21023998e+01, 2.47852039e+01,
          1.66639996e+01, 1.84768581e+01, 1.03984003e+01, 1.81275415e+00 ]
      - [ 9.51200008e+00, 2.29230356e+00, 1.10671997e+01, 1.87069082e+00,
          9.58559990e+00, 1.41176224e+00, 9.41440010e+00, 1.41741765e+00,
          9.00160027e+00, 1.71440876e+00, 8.91359997e+00, 1.94374251e+00,
          9.91520023e+00, 1.75020254e+00, 1.03151999e+01, 1.23606193e+00,
          9.50399971e+00, 1.83400762e+00, 9.99839973e+00, 6.82347000e-01,
          1.01152000e+01, 1.96191967e+00, 9.83199978e+00, 1.80548501e+00,
          1.08431997e+01, 5.05119944e+00, 3.56640015e+01, 3.60779037e+01,
          3.30960007e+01, 3.69392204e+01, 3.39743996e+01, 3.73677406e+01,
          3.56384010e+01, 3.69257927e+01, 1.21280003e+01, 7.84670734e+00,
          2.28367996e+01, 2.61629772e+01, 2.07392006e+01, 2.18377476e+01,
          1.08704004e+01, 1.35558248e+00, 1.06688004e+01, 1.33891988e+00,
          1.30671997e+01, 8.23389816e+00, 2.72784004e+01, 2.76987667e+01,
          1.09823999e+01, 5.47354460e+00, 3.69455986e+01, 3.62215004e+01,
          3.43311996e+01, 3.63717346e+01, 3.43600006e+01, 3.81694336e+01,
          3.63311996e+01, 3.65268669e+01, 1.31408005e+01, 1.30599604e+01,
          1.16160002e+01, 5.30476618e+00, 3.51888008e+01, 3.59760742e+01,
          3.51839981e+01, 3.93996124e+01, 3.41199989e+01, 3.66806755e+01,
          3.58768005e+01, 3.66690178e+01, 1.31135998e+01, 8.31932068e+00,
          2.58607998e+01, 3.00295563e+01, 1.77296009e+01, 1.72632923e+01,
          1.09424000e+01, 1.39595211e+00, 1.06976004e+01, 1.94559872e+00,
          1.45039997e+01, 1.06083918e+01, 2.98223991e+01, 2.89440651e+01,
          1.33535995e+01, 6.62442207e+00, 3.80368004e+01, 3.66289978e+01,
          3.66720009e+01, 3.78414307e+01, 3.54143982e+01, 3.93786888e+01,
          3.76223984e+01, 3.61188469e+01, 1.23535995e+01, 1.12763720e+01,
          1.00319996e+01, 1.52176738e+00, 1.06800003e+01, 1.56153774e+00,
          1.03648005e+01, 1.33075953e+00, 1.05888004e+01, 1.32503378e+00,
          1.01887999e+01, 8.05701256e-01, 1.00207996e+01, 3.41126591e-01,
          9.71679974e+00, 2.15810061e+00, 1.01152000e+01, 5.76479793e-01,
          9.88479996e+00, 4.65970993e-01, 9.91040039e+00, 4.13729191e-01,
          9.75039959e+00, 8.58894527e-01, 1.02223997e+01, 1.23164046e+00 ]
      - [ 9.00800037e+00, 3.27437568e+00, 9.91359997e+00, 1.58661115e+00,
          1.09216003e+01, 2.56161141e+00, 1.10559998e+01, 2.36001348e+00,
          9.49120045e+00, 2.62791228e+00, 8.41600037e+00, 2.76950240e+00,
          9.37759972e+00, 2.13949013e+00, 9.88640022e+00, 9.91914809e-01,
          8.87199974e+00, 1.95949376e+00, 9.60319996e+00, 1.23132038e+00,
          1.04608002e+01, 9.21988785e-01, 9.04640007e+00, 1.77613258e+00,
          1.11983995e+01, 3.90269613e+00, 3.44911995e+01, 3.53151779e+01,
          3.49808006e+01, 3.87847328e+01, 3.47599983e+01, 4.06758881e+01,
          3.39567986e+01, 3.78539467e+01, 1.06496000e+01, 5.10000181e+00,
          2.26112003e+01, 2.59985390e+01, 2.04111996e+01, 2.21334610e+01,
          1.07200003e+01, 1.57378531e+00, 1.03727999e+01, 1.16078424e+00,
          1.43087997e+01, 1.25826168e+01, 2.64880009e+01, 2.71312714e+01,
          1.19568005e+01, 6.14593649e+00, 3.79776001e+01, 3.66969376e+01,
          3.52127991e+01, 3.92762260e+01, 3.58576012e+01, 4.00323524e+01,
          3.71328011e+01, 3.82442665e+01, 1.48128004e+01, 1.50844612e+01,
          1.11695995e+01, 4.43910313e+00, 3.46576004e+01, 3.64956284e+01,
          3.58176003e+01, 3.82340431e+01, 3.62624016e+01, 3.91403809e+01,
          3.42799988e+01, 3.50520515e+01, 1.08495998e+01, 3.00715470e+00,
          2.46896000e+01, 2.89315815e+01, 1.86784000e+01, 1.92799320e+01,
          1.08879995e+01, 1.15665722e+00, 1.01599998e+01, 9.27793086e-01,
          1.72031994e+01, 1.75370331e+01, 2.74015999e+01, 2.71541443e+01,
          1.33615999e+01, 8.59192944e+00, 3.86528015e+01, 3.58763580e+01,
          3.58959999e+01, 3.88990135e+01, 3.38944016e+01, 3.68965912e+01,
          3.82991982e+01, 3.62279243e+01, 1.34560003e+01, 1.39697409e+01,
          1.16032000e+01, 2.14050221e+00, 1.04672003e+01, 1.37728870e+00,
          1.09680004e+01, 1.64796114e+00, 1.02447996e+01, 1.62655246e+00,
          1.05936003e+01, 1.28795922e+00, 9.92479992e+00, 5.23779511e-01,
          9.77439976e+00, 2.12534809e+00, 1.00480003e+01, 3.76425296e-01,
          1.00447998e+01, 8.80677581e-01, 9.90079975e+00, 5.76679587e-01,
          9.98719978e+00, 1.59487173e-01, 1.01983995e+01, 9.01020229e-01 ]
      - [ 1.09104004e+01, 1.74859142e+00, 1.13056002e+01, 1.89763236e+00,
          1.02032003e+01, 1.84572744e+00, 9.87040043e+00, 2.06397772e+00,
          9.47360039e+00, 2.41323495e+00, 9.35999966e+00, 1.84260690e+00,
          1.22784004e+01, 4.97892475e+00, 2.16863995e+01, 1.89345207e+01,
          2.41327991e+01, 2.84993744e+01, 2.31072006e+01, 2.75188313e+01,
          1.99696007e+01, 2.14472542e+01, 1.33263998e+01, 8.37017727e+00,
          1.23184004e+01, 7.14821815e+00, 1.51183996e+01, 1.13210058e+01,
          1.14768000e+01, 1.95383263e+00, 1.11280003e+01, 1.67320526e+00,
          1.16960001e+01, 7.24477625e+00, 1.50223999e+01, 1.21377220e+01,
          1.19519997e+01, 2.26999903e+00, 2.03248005e+01, 1.92220325e+01,
          2.48176003e+01, 2.75749226e+01, 2.38255997e+01, 2.74121723e+01,
          2.27632008e+01, 2.33779716e+01, 1.00559998e+01, 1.80001783e+00,
          1.26703997e+01, 4.91008806e+00, 2.06287994e+01, 1.98022976e+01,
          2.23696003e+01, 2.63184071e+01, 2.14848003e+01, 2.37604752e+01,
          2.06079998e+01, 2.01724148e+01, 1.24815998e+01, 7.59347486e+00,
          1.20592003e+01, 8.14477062e+00, 1.47584000e+01, 8.01144409e+00,
          9.32639980e+00, 1.45405054e+00, 9.68640041e+00, 1.84283888e+00,
          1.22223997e+01, 8.39066982e+00, 1.36336002e+01, 8.81481457e+00,
          1.04751997e+01, 2.08071733e+00, 1.87423992e+01, 1.82892113e+01,
          2.24911995e+01, 2.55943813e+01, 2.30576000e+01, 2.43515568e+01,
          2.00944004e+01, 2.09273567e+01, 1.00704002e+01, 9.82162833e-01,
          1.40799999e+01, 6.12248325e+00, 2.32544003e+01, 2.23314152e+01,
          2.07759991e+01, 2.30525875e+01, 2.22831993e+01, 2.50621262e+01,
          2.01583996e+01, 1.96567059e+01, 1.10383997e+01, 6.11032963e+00,
          1.39728003e+01, 7.64936972e+00, 1.55743999e+01, 8.40902328e+00,
          1.25087996e+01, 2.18511391e+00, 9.68000031e+00, 2.04665589e+00,
          1.36848001e+01, 1.09612341e+01, 1.35696001e+01, 8.92701244e+00,
          9.10400009e+00, 3.30822968e+00, 1.58512001e+01, 1.36670790e+01,
          2.26303997e+01, 2.35501728e+01, 2.26240005e+01, 2.27804356e+01,
          1.81551991e+01, 1.74319229e+01, 9.97760010e+00, 1.76258278e+00 ]
      - [ 1.02496004e+01, 1.95102537e+00, 1.05215998e+01, 2.30823159e+00,
          1.04160004e+01, 1.94970357e+00, 1.05391998e+01, 2.56227708e+00,
          9.67520046e+00, 2.11019063e+00, 9.92160034e+00, 2.65425205e+00,
          1.15296001e+01, 3.63311481e+00, 2.39487991e+01, 2.24439697e+01,
          2.37152004e+01, 2.72256145e+01, 2.54207993e+01, 3.15831432e+01,
          2.23376007e+01, 2.47887001e+01, 1.29359999e+01, 8.17346382e+00,
          1.05775995e+01, 5.44007158e+00, 1.44160004e+01, 1.09525404e+01,
          1.10335999e+01, 1.80323899e+00, 1.06496000e+01, 2.13626313e+00,
          1.21007996e+01, 8.63487339e+00, 1.29152002e+01, 8.93465233e+00,
          1.04127998e+01, 2.64287639e+00, 1.89375992e+01, 1.90135345e+01,
          2.29360008e+01, 2.54462090e+01, 2.22287998e+01, 2.45768108e+01,
          2.37296009e+01, 2.64041595e+01, 1.02896004e+01, 1.61521888e+00,
          1.05120001e+01, 4.41491270e+00, 2.33743992e+01, 2.19409523e+01,
          2.26383991e+01, 2.53333702e+01, 2.24431992e+01, 2.74128208e+01,
          2.11007996e+01, 2.24991608e+01, 1.38767996e+01, 7.98674059e+00,
          1.18719997e+01, 5.32312107e+00, 1.47872000e+01, 9.32031727e+00,
          1.02847996e+01, 2.13889909e+00, 9.75679970e+00, 1.53520477e+00,
          1.30064001e+01, 1.08269272e+01, 1.47695999e+01, 1.10984554e+01,
          1.16448002e+01, 2.45508313e+00, 1.88015995e+01, 1.76313076e+01,
          2.46959991e+01, 2.54852505e+01, 2.47551994e+01, 2.89933929e+01,
          2.21952000e+01, 2.47871647e+01, 1.02687998e+01, 1.61435640e+00,
          1.08160000e+01, 4.83914709e+00, 2.35552006e+01, 2.08309898e+01,
          2.23120003e+01, 2.68590450e+01, 2.18687992e+01, 2.53845692e+01,
          1.94543991e+01, 1.97444859e+01, 1.34048004e+01, 7.97863007e+00,
          1.24832001e+01, 6.20529747e+00, 1.60240002e+01, 1.02676687e+01,
          1.18943996e+01, 2.21161675e+00, 9.56159973e+00, 1.65692651e+00,
          1.40528002e+01, 1.44731064e+01, 1.31344004e+01, 9.55980873e+00,
          1.09792004e+01, 2.40024328e+00, 1.56864004e+01, 1.28084059e+01,
          2.26560001e+01, 2.14381733e+01, 2.41583996e+01, 2.49772797e+01,
          1.86352005e+01, 1.86997681e+01, 1.10992002e+01, 2.02774739e+00 ]
      - [ 1.03327999e+01, 3.14268112e+00, 1.03504000e+01, 1.04480612e+00,
          1.12496004e+01, 1.55489540e+00, 1.03392000e+01, 1.80669403e+00,
          1.04063997e+01, 2.25309539e+00, 9.30560017e+00, 1.48304033e+00,
          1.15327997e+01, 2.29140234e+00, 1.07952003e+01, 1.26224279e+00,
          1.06976004e+01, 1.85896587e+00, 1.08255997e+01, 1.76181293e+00,
          1.11664000e+01, 1.68508482e+00, 1.03535995e+01, 1.06196380e+00,
          1.15167999e+01, 7.54295158e+00, 3.82896004e+01, 3.86246452e+01,
          3.57312012e+01, 3.96792526e+01, 3.65615997e+01, 3.90555687e+01,
          3.54767990e+01, 3.44790688e+01, 1.12016001e+01, 3.43222332e+00,
          2.49344006e+01, 2.93120670e+01, 1.59983997e+01, 1.57394285e+01,
          1.08128004e+01, 1.51001859e+00, 1.04144001e+01, 1.32282746e+00,
          2.10223999e+01, 2.39699707e+01, 2.15167999e+01, 2.25570946e+01,
          1.10304003e+01, 7.54065466e+00, 3.75088005e+01, 3.77956238e+01,
          3.70351982e+01, 4.07308273e+01, 3.72672005e+01, 4.08174553e+01,
          3.80096016e+01, 3.76708679e+01, 1.32784004e+01, 4.25611258e+00,
          1.26496000e+01, 9.15521812e+00, 3.75904007e+01, 3.91040688e+01,
          3.53568001e+01, 3.81808624e+01, 3.48176003e+01, 3.80427818e+01,
          3.35135994e+01, 3.45368462e+01, 1.16464005e+01, 2.42350316e+00,
          3.07231998e+01, 3.15229206e+01, 1.57024002e+01, 1.24711924e+01,
          1.09280005e+01, 1.37040722e+00, 1.00128002e+01, 1.30469775e+00,
          2.26511993e+01, 2.61167831e+01, 1.98896008e+01, 2.32789478e+01,
          1.36032000e+01, 1.13098612e+01, 3.79071999e+01, 3.70069962e+01,
          3.64959984e+01, 3.76038780e+01, 3.52448006e+01, 3.92994957e+01,
          3.82943993e+01, 3.87607193e+01, 1.14863997e+01, 5.84659004e+00,
          1.08095999e+01, 1.55863655e+00, 1.21199999e+01, 2.29712868e+00,
          1.04560003e+01, 1.41819036e+00, 1.05136003e+01, 1.30729306e+00,
          1.03520002e+01, 1.05721140e+00, 9.75039959e+00, 7.29999900e-01,
          1.00159998e+01, 1.73243880e+00, 9.92319965e+00, 1.39731944e+00,
          9.52639961e+00, 1.01493990e+00, 9.96160030e+00, 2.74454802e-01,
          10., 0., 9.95520020e+00, 7.53387630e-01 ]
      - [ 9.29279995e+00, 2.25119257e+00, 1.24639997e+01, 5.03069639e+00,
          1.46415997e+01, 1.17291918e+01, 1.21232004e+01, 7.97671747e+00,
          1.08624001e+01, 3.01202035e+00, 1.13648005e+01, 2.58017850e+00,
          1.04784002e+01, 4.67503309e+00, 2.28736000e+01, 2.24009647e+01,
          2.36191998e+01, 2.96358528e+01, 2.15344009e+01, 2.89240532e+01,
          2.10112000e+01, 2.40134277e+01, 1.24320002e+01, 7.46783590e+00,
          1.18928003e+01, 4.59875059e+00, 1.65344009e+01, 1.20099630e+01,
          1.13327999e+01, 2.75935578e+00, 1.04991999e+01, 2.05533433e+00,
          1.45488005e+01, 1.44596968e+01, 1.25136003e+01, 8.59470844e+00,
          1.28352003e+01, 1.99440241e+00, 1.96464005e+01, 2.28699570e+01,
          3.46991997e+01, 3.70639992e+01, 3.49104004e+01, 3.31170769e+01,
          2.37199993e+01, 2.70169125e+01, 1.04224005e+01, 1.89335108e+00,
          1.19968004e+01, 5.65487289e+00, 1.76863995e+01, 1.48611994e+01,
          1.19424000e+01, 7.13077021e+00, 1.41007996e+01, 1.20459557e+01,
          1.71728001e+01, 1.67988262e+01, 1.40335999e+01, 7.66146660e+00,
          1.25312004e+01, 5.10115957e+00, 1.69055996e+01, 1.30972624e+01,
          1.49104004e+01, 9.42379856e+00, 1.42384005e+01, 8.00714493e+00,
          1.83887997e+01, 1.79060898e+01, 1.42735996e+01, 1.06578960e+01,
          1.28864002e+01, 1.84214413e+00, 2.06032009e+01, 2.24290390e+01,
          3.24959984e+01, 3.30444107e+01, 3.33232002e+01, 3.33474503e+01,
          2.20527992e+01, 2.43879070e+01, 1.02047997e+01, 1.35161269e+00,
          1.32784004e+01, 7.50419188e+00, 1.92672005e+01, 1.38479967e+01,
          1.33472004e+01, 2.97661757e+00, 1.23632002e+01, 2.41082668e+00,
          1.56639996e+01, 1.02158651e+01, 1.14784002e+01, 7.93109894e+00,
          1.33487997e+01, 6.80775595e+00, 1.78223991e+01, 1.27227221e+01,
          1.56688004e+01, 1.34489517e+01, 1.49664001e+01, 1.14512043e+01,
          1.81424007e+01, 1.78727207e+01, 1.32496004e+01, 9.84024906e+00,
          1.17040005e+01, 2.76788449e+00, 1.38912001e+01, 1.13099318e+01,
          1.98656006e+01, 2.26919098e+01, 2.10783997e+01, 2.42848148e+01,
          1.56015997e+01, 1.45864487e+01, 1.17536001e+01, 1.97506630e+00 ]
      - [ 2.80704002e+01, 1.74966469e+01, 2.43248005e+01, 2.41166019e+00,
          2.42688007e+01, 2.00033665e+00, 2.51152000e+01, 2.77811599e+00,
          2.56448002e+01, 2.78140855e+00, 2.59552002e+01, 1.79966545e+01,
          2.54799995e+01, 7.60904741e+00, 1.55454407e+02, 1.01079208e+02,
          2.14819199e+02, 6.77853165e+01, 2.15955200e+02, 6.52375183e+01,
          1.80160004e+02, 9.22475815e+01, 2.52576008e+01, 1.37890120e+01,
          2.34288006e+01, 5.85355711e+00, 2.04399994e+02, 7.36701431e+01,
          2.40337601e+02, 1.92821836e+00, 2.40367996e+02, 1.61263013e+00,
          2.18569595e+02, 5.95018692e+01, 2.65711994e+01, 2.30034809e+01,
          2.31200008e+01, 5.09964705e+00, 3.95615997e+01, 5.06141472e+01,
          7.33855972e+01, 8.35255585e+01, 7.37712021e+01, 8.36212616e+01,
          4.34000015e+01, 5.51618423e+01, 2.41807995e+01, 2.09859753e+00,
          2.26543999e+01, 4.86413002e+00, 1.88934402e+02, 8.43422165e+01,
          2.37859207e+02, 2.55424643e+00, 2.38764801e+02, 1.92017734e+00,
          2.14391998e+02, 6.40602112e+01, 2.69503994e+01, 2.28034897e+01,
          2.25296001e+01, 5.02946568e+00, 1.83240005e+02, 8.65739899e+01,
          2.35433594e+02, 9.33753681e+00, 2.33600006e+02, 1.86801281e+01,
          1.93729599e+02, 8.18508453e+01, 2.74703999e+01, 1.66149673e+01,
          2.31984005e+01, 3.91211414e+00, 4.15103989e+01, 5.50056305e+01,
          7.21296005e+01, 8.45562973e+01, 7.44031982e+01, 8.74451828e+01,
          5.17536011e+01, 6.82092819e+01, 2.61439991e+01, 1.76228940e+00,
          2.26464005e+01, 4.26311684e+00, 2.05305603e+02, 6.52088394e+01,
          2.36227203e+02, 1.41406512e+00, 2.38886398e+02, 1.63312435e+00,
          2.29129593e+02, 4.18102112e+01, 3.37232018e+01, 3.33642006e+01,
          2.23456001e+01, 4.09513855e+00, 1.56974396e+02, 9.65046234e+01,
          2.10324799e+02, 6.78896408e+01, 2.10737595e+02, 7.00499802e+01,
          1.72580795e+02, 9.46568069e+01, 2.94559994e+01, 1.37092695e+01,
          2.29055996e+01, 9.06186962e+00, 2.46128006e+01, 2.34752560e+00,
          2.63887997e+01, 2.02643394e+00, 2.58463993e+01, 2.30034924e+00,
          2.72255993e+01, 2.34646630e+00, 2.93967991e+01, 1.27153196e+01 ]
      - [ 2.24911995e+01, 2.05450611e+01, 1.77168007e+01, 2.31339526e+00,
          1.77824001e+01, 2.26359224e+00, 1.74400005e+01, 2.87944436e+00,
          1.77520008e+01, 2.07867646e+00, 2.02975998e+01, 1.92230129e+01,
          1.96352005e+01, 1.00315361e+01, 1.90512009e+01, 2.20405445e-01,
          1.91856003e+01, 3.88783544e-01, 1.92304001e+01, 4.21088874e-01,
          1.89936008e+01, 1.78770915e-01, 1.83008003e+01, 2.46818137e+00,
          1.90720005e+01, 8.02533627e+00, 5.93871994e+01, 8.06427383e+01,
          2.20543995e+01, 2.46744614e+01, 5.98432007e+01, 8.11685104e+01,
          3.12735996e+01, 4.81296616e+01, 1.78703995e+01, 2.94550562e+00,
          1.79312000e+01, 6.83403730e+00, 1.98852798e+02, 7.79684677e+01,
          2.32352005e+02, 2.68062248e+01, 2.38531204e+02, 1.90982366e+00,
          1.93667206e+02, 8.37846832e+01, 1.78752003e+01, 2.35975099e+00,
          1.78111992e+01, 3.82156444e+00, 8.03007965e+01, 9.47186127e+01,
          1.26694397e+02, 1.05697098e+02, 6.54591980e+01, 8.52196121e+01,
          1.10964798e+02, 1.03050926e+02, 1.82096004e+01, 2.14048314e+00,
          1.79904003e+01, 4.35540009e+00, 1.35455994e+02, 1.02541397e+02,
          1.05628799e+02, 1.03017609e+02, 1.51528000e+02, 1.04782669e+02,
          9.04736023e+01, 9.94540405e+01, 1.92479992e+01, 1.26146579e+00,
          1.81807995e+01, 4.03912258e+00, 1.80190399e+02, 8.85222702e+01,
          2.35817596e+02, 1.13565636e+01, 1.99988800e+02, 7.91535110e+01,
          2.16238403e+02, 5.96867752e+01, 1.98223991e+01, 2.07741618e+00,
          1.76816006e+01, 5.23551559e+00, 3.06320000e+01, 4.34190636e+01,
          4.30975990e+01, 6.23176765e+01, 1.95967999e+01, 1.71038878e+00,
          3.89024010e+01, 5.63875885e+01, 2.10895996e+01, 1.66035295e+00,
          1.78672009e+01, 4.82526302e+00, 2.00303993e+01, 1.71685293e-01,
          2.00576000e+01, 2.32985497e-01, 2.03152008e+01, 4.64595467e-01,
          2.10527992e+01, 5.53183675e-01, 2.24976006e+01, 1.98886752e+00,
          1.97087994e+01, 1.22413721e+01, 1.91264000e+01, 1.93949044e+00,
          1.97311993e+01, 1.85422397e+00, 1.97775993e+01, 2.22929096e+00,
          2.02992001e+01, 2.16778207e+00, 2.31903992e+01, 1.11257782e+01 ]
      - [ 1.97535992e+01, 1.53878946e+01, 1.78687992e+01, 2.03381085e+00,
          1.80655994e+01, 1.81650674e+00, 1.80960007e+01, 1.68961060e+00,
          1.82831993e+01, 1.48317146e+00, 1.81776009e+01, 1.07812643e+01,
          1.79200001e+01, 4.00958872e+00, 19., 0., 1.89743996e+01,
          3.13918203e-01, 1.89487991e+01, 4.46070135e-01, 19., 0.,
          1.81551991e+01, 2.42979693e+00, 1.79136009e+01, 4.50800800e+00,
          1.83456001e+01, 2.38708210e+00, 7.07919998e+01, 8.94436722e+01,
          8.37984009e+01, 9.65818787e+01, 1.92992001e+01, 1.08937454e+01,
          1.78143997e+01, 3.05534816e+00, 1.85760002e+01, 1.06290655e+01,
          1.43036804e+02, 9.99224319e+01, 2.35995193e+02, 4.20836973e+00,
          2.37259201e+02, 1.78527737e+00, 1.60948807e+02, 9.58918457e+01,
          1.98880005e+01, 2.01869717e+01, 1.79344006e+01, 3.81540251e+00,
          2.23040009e+01, 2.58000393e+01, 1.01249603e+02, 1.02045082e+02,
          1.06830399e+02, 1.02931511e+02, 2.28927994e+01, 2.73844872e+01,
          1.80016003e+01, 3.44348621e+00, 1.80400009e+01, 3.84416437e+00,
          2.23920002e+01, 2.48439922e+01, 1.04974403e+02, 1.02739494e+02,
          1.16708801e+02, 1.04734245e+02, 2.80543995e+01, 4.02526436e+01,
          1.88512001e+01, 2.58585739e+00, 1.88896008e+01, 1.06774817e+01,
          1.45670395e+02, 9.73633499e+01, 2.35659195e+02, 3.43823433e+00,
          2.36748795e+02, 2.71162295e+00, 1.58337601e+02, 9.80501862e+01,
          2.22336006e+01, 1.88605785e+01, 1.89664001e+01, 3.57419515e+00,
          1.94239998e+01, 2.72488976e+00, 7.32575989e+01, 8.90186462e+01,
          7.60655975e+01, 9.06404114e+01, 2.01711998e+01, 2.85564184e+00,
          2.06592007e+01, 1.14571178e+00, 1.85760002e+01, 4.19421339e+00,
          2.00911999e+01, 2.87893325e-01, 2.05167999e+01, 4.99717683e-01,
          2.08416004e+01, 3.65115643e-01, 2.09904003e+01, 9.75081548e-02,
          2.21152000e+01, 1.69691753e+00, 1.93183994e+01, 1.18478107e+01,
          1.98736000e+01, 1.47459245e+00, 2.00431995e+01, 1.79948151e+00,
          2.01007996e+01, 1.75938606e+00, 2.03920002e+01, 1.54140711e+00,
          2.28752003e+01, 1.36973143e+01 ]
      - [ 1.05360003e+01, 1.83708229e+01, 6.58080006e+00, 1.68008077e+00,
          7.26079988e+00, 1.77290249e+00, 7.84480000e+00, 2.71645236e+00,
          8.19839954e+00, 4.89005518e+00, 1.21583996e+01, 1.81883183e+01,
          7.09280014e+00, 1.51399744e+00, 7.95359993e+00, 1.54901481e+00,
          1.04848003e+01, 1.30849874e+00, 1.10688000e+01, 1.62187135e+00,
          9.93439960e+00, 1.72153902e+00, 8.33119965e+00, 1.81303799e+00,
          7.44320011e+00, 1.88392508e+00, 8.30879974e+00, 1.40706873e+00,
          9.97280025e+00, 9.99630034e-01, 1.04575996e+01, 9.69227672e-01,
          1.03232002e+01, 1.45146191e+00, 8.73439980e+00, 1.79417300e+00,
          8.03359985e+00, 3.81833363e+00, 8.16800022e+00, 1.05174899e+00,
          9.73919964e+00, 4.81605482e+00, 1.02256002e+01, 8.14166451e+00,
          9.27200031e+00, 8.44521165e-01, 9.17119980e+00, 1.62218702e+00,
          8.99199963e+00, 4.58571005e+00, 7.18112030e+01, 9.93378830e+01,
          1.95468796e+02, 9.62678909e+01, 2.02983994e+02, 9.08575516e+01,
          8.04720001e+01, 1.03384529e+02, 1.03247995e+01, 7.62218523e+00,
          1.24032001e+01, 1.70982285e+01, 1.02713600e+02, 1.11991600e+02,
          2.21347198e+02, 7.53771057e+01, 2.25502396e+02, 7.04084778e+01,
          1.08473602e+02, 1.13201469e+02, 1.31823997e+01, 2.34665108e+01,
          1.08752003e+01, 1.02850780e+01, 8.87839985e+00, 6.18072331e-01,
          1.48752003e+01, 3.09433098e+01, 1.70128002e+01, 3.63097305e+01,
          9., 0., 8.84160042e+00, 9.93835747e-01, 1.18112001e+01,
          1.25888662e+01, 8.94880009e+00, 3.15877438e-01, 8.85919952e+00,
          5.11639893e-01, 9., 0., 9., 0., 9.74079990e+00, 1.56971824e+00,
          1.14527998e+01, 1.03542728e+01, 8.97760010e+00, 2.10471466e-01,
          9., 0., 9., 0., 9., 0., 8.62880039e+00, 1.20391464e+00,
          1.33808002e+01, 1.76605034e+01, 8.55200005e+00, 1.06475163e+00,
          8.54559994e+00, 9.14724350e-01, 8.57120037e+00, 9.20070946e-01,
          8.57919979e+00, 9.91426945e-01, 9.71679974e+00, 8.33660603e+00 ]
      - [ 2.34960003e+01, 1.95711727e+01, 1.88304005e+01, 2.12866998e+00,
          1.91023998e+01, 1.76247394e+00, 1.90863991e+01, 1.83884072e+00,
          1.91728001e+01, 1.70895875e+00, 2.08815994e+01, 8.55076504e+00,
          1.96079998e+01, 7.81331778e+00, 1.10473602e+02, 1.00512688e+02,
          7.27279968e+01, 8.86174316e+01, 1.15916801e+02, 1.03815956e+02,
          6.05008011e+01, 8.10160141e+01, 2.05583992e+01, 1.11004031e+00,
          1.86944008e+01, 7.00681162e+00, 1.96969604e+02, 7.35805435e+01,
          2.33559998e+02, 1.70458210e+00, 2.23742401e+02, 3.61730843e+01,
          1.99227203e+02, 7.44354935e+01, 2.01119995e+01, 1.31097519e+00,
          1.81823997e+01, 4.01302004e+00, 4.51024017e+01, 6.72145615e+01,
          6.61839981e+01, 8.45651093e+01, 1.94447994e+01, 1.21547585e+01,
          5.86240005e+01, 7.74626465e+01, 2.02831993e+01, 1.71154833e+00,
          1.69615993e+01, 4.79050350e+00, 1.86313599e+02, 7.84541321e+01,
          1.52792007e+02, 1.00364609e+02, 1.97279999e+02, 7.49628143e+01,
          1.18532799e+02, 1.02833031e+02, 2.05904007e+01, 1.03471148e+00,
          1.77360001e+01, 4.78521729e+00, 1.56860794e+02, 9.56794891e+01,
          1.99444794e+02, 7.15363541e+01, 1.44291199e+02, 1.01982330e+02,
          1.77300797e+02, 8.74503326e+01, 2.12560005e+01, 1.48756981e+00,
          1.79200001e+01, 4.85765362e+00, 6.14592018e+01, 7.92982101e+01,
          2.35552006e+01, 2.62253723e+01, 6.28783989e+01, 8.13762283e+01,
          2.92800007e+01, 4.01493607e+01, 2.17504005e+01, 8.64465058e-01,
          1.85216007e+01, 4.24602556e+00, 2.16699203e+02, 4.23980637e+01,
          2.27673599e+02, 2.39407082e+01, 2.34182404e+02, 1.78939378e+00,
          1.74647995e+02, 9.22326355e+01, 2.28591995e+01, 1.63834536e+00,
          1.95888004e+01, 2.71626854e+00, 9.51936035e+01, 9.74295502e+01,
          1.24892799e+02, 1.02959053e+02, 7.15951996e+01, 8.64765854e+01,
          1.16391998e+02, 1.01750954e+02, 2.51616001e+01, 1.68412745e+00,
          1.87455997e+01, 1.07365952e+01, 1.98656006e+01, 1.73284066e+00,
          2.12192001e+01, 1.39654982e+00, 2.14848003e+01, 1.50418377e+00,
          2.25408001e+01, 1.23755217e+00, 2.45904007e+01, 6.42857885e+00 ]
      - [ 2.06959991e+01, 1.42721119e+01, 2.02352009e+01, 2.27347326e+00,
          1.98080006e+01, 2.84955025e+00, 1.96271992e+01, 3.22146249e+00,
          2.03551998e+01, 2.19932556e+00, 2.14799995e+01, 1.50093307e+01,
          1.87632008e+01, 4.18319559e+00, 5.74640007e+01, 7.73704147e+01,
          1.68095993e+02, 9.50940247e+01, 1.85380798e+02, 8.63333359e+01,
          7.59504013e+01, 8.95026550e+01, 1.99487991e+01, 3.26248050e+00,
          1.94368000e+01, 6.79290867e+00, 1.02038399e+02, 9.86144867e+01,
          2.08737595e+02, 6.40074081e+01, 2.18465607e+02, 5.18839874e+01,
          1.17892799e+02, 1.02086891e+02, 2.37248001e+01, 2.42730026e+01,
          1.96415997e+01, 4.51162386e+00, 2.03360004e+01, 1.07884383e+00,
          2.71919994e+01, 3.55746193e+01, 3.57952003e+01, 5.14337769e+01,
          2.04655991e+01, 1.19566572e+00, 2.03439999e+01, 3.12180471e+00,
          1.94687996e+01, 6.12635517e+00, 8.29247971e+01, 9.26542587e+01,
          1.92835205e+02, 7.72876434e+01, 2.08113602e+02, 6.47426987e+01,
          1.04790398e+02, 1.00735008e+02, 2.31888008e+01, 2.30546379e+01,
          2.04687996e+01, 7.03723145e+00, 7.07088013e+01, 8.57761612e+01,
          1.79283203e+02, 8.67855530e+01, 1.95961594e+02, 7.60588531e+01,
          8.81279984e+01, 9.45308914e+01, 2.12479992e+01, 1.05585270e+01,
          2.14703999e+01, 8.49750137e+00, 2.09792004e+01, 1.42925417e+00,
          3.53936005e+01, 4.83165436e+01, 4.56944008e+01, 6.23649712e+01,
          2.28271999e+01, 6.98956490e-01, 2.20688000e+01, 1.67238355e+00,
          2.20464001e+01, 7.62119722e+00, 1.13015999e+02, 9.82008667e+01,
          2.19046402e+02, 4.90370903e+01, 2.28441605e+02, 3.25674706e+01,
          1.39883194e+02, 1.01297714e+02, 2.64703999e+01, 2.65787201e+01,
          2.26592007e+01, 6.78709459e+00, 4.54336014e+01, 6.19128113e+01,
          1.48846405e+02, 9.98882370e+01, 1.68063995e+02, 9.49797745e+01,
          6.06528015e+01, 7.76676178e+01, 2.21359997e+01, 2.43028879e+00,
          2.28911991e+01, 1.46951208e+01, 2.15312004e+01, 2.21617389e+00,
          2.19552002e+01, 1.63401127e+00, 2.14463997e+01, 1.56790531e+00,
          2.17071991e+01, 1.56941652e+00, 2.21744003e+01, 3.33514380e+00 ]
      - [ 8.40320015e+00, 2.00973368e+00, 9.27040005e+00, 6.82703316e-01,
          9.38080025e+00, 7.85233319e-01, 9.25440025e+00, 1.10021842e+00,
          9.60159969e+00, 9.79631305e-01, 8.47679996e+00, 1.54397595e+00,
          8.80959988e+00, 1.66965497e+00, 9.19359970e+00, 5.90016127e-01,
          9.18560028e+00, 5.80303907e-01, 9.19519997e+00, 5.93546093e-01,
          9.50240040e+00, 8.72922838e-01, 8.95520020e+00, 1.64766288e+00,
          8.81760025e+00, 1.16289735e+00, 9.14400005e+00, 1.39085007e+00,
          9.11520004e+00, 4.65970993e-01, 9.48320007e+00, 1.34941387e+00,
          9.15359974e+00, 1.13930106e+00, 8.91520023e+00, 1.44360971e+00,
          1.55791998e+01, 2.42833385e+01, 1.57196793e+02, 9.60231400e+01,
          1.04289597e+02, 1.03629440e+02, 1.79695999e+02, 8.91433182e+01,
          1.17846397e+02, 1.02414543e+02, 8.98880005e+00, 1.54863632e+00,
          1.17952003e+01, 1.32441559e+01, 2.05979202e+02, 6.61194611e+01,
          2.39572800e+02, 2.69427180e+00, 2.30675201e+02, 2.83159046e+01,
          2.12118393e+02, 5.75073051e+01, 9.15200043e+00, 2.11983395e+00,
          8.82559967e+00, 1.02136409e+00, 3.10576000e+01, 5.63886223e+01,
          5.91119995e+01, 8.39138260e+01, 1.65424004e+01, 2.43563919e+01,
          6.72272034e+01, 8.64367676e+01, 9.00959969e+00, 1.12849808e+00,
          9.00640011e+00, 7.15513110e-01, 9.29440022e+00, 7.08610356e-01,
          9.17920017e+00, 6.92739010e-01, 9.08959961e+00, 3.50958467e-01,
          8.97439957e+00, 3.03553343e-01, 8.86559963e+00, 6.35874689e-01,
          9.46240044e+00, 6.34181559e-01, 9.26239967e+00, 6.89308524e-01,
          9.07040024e+00, 4.01800752e-01, 9.22560024e+00, 7.99189985e-01,
          9.23040009e+00, 7.74413228e-01, 9.13440037e+00, 9.80375767e-01,
          9.59039974e+00, 1.16697383e+00, 1.03184004e+01, 1.43088138e+00,
          1.02847996e+01, 1.18342257e+00, 1.03296003e+01, 1.23683619e+00,
          1.06960001e+01, 1.42337060e+00, 9.26879978e+00, 9.26793694e-01,
          8.58559990e+00, 2.00066805e+00, 9.35200024e+00, 2.23089576e+00,
          9.66720009e+00, 3.06536198e+00, 9.60480022e+00, 1.25308299e+00,
          1.03263998e+01, 9.79317665e-01, 9.75199986e+00, 1.50016534e+00 ]
      - [ 7.68160009e+00, 2.73573041e+00, 9.01599979e+00, 1.68949693e-01,
          9.01280022e+00, 1.12410672e-01, 8.43200016e+00, 1.31170726e+00,
          9.05760002e+00, 2.59002388e-01, 8.47519970e+00, 8.79877806e-01,
          8.39360046e+00, 1.93294573e+00, 9.02239990e+00, 1.47980541e-01,
          9.01920033e+00, 1.77852079e-01, 9.01920033e+00, 1.77852079e-01,
          9.06079960e+00, 3.38678837e-01, 8.66720009e+00, 8.41691256e-01,
          9.00319958e+00, 1.58492577e+00, 9.25920010e+00, 1.55641103e+00,
          8.63840008e+00, 9.70178068e-01, 9.02239990e+00, 1.47980541e-01,
          9.02880001e+00, 2.24433869e-01, 8.41279984e+00, 1.47702277e+00,
          1.32368002e+01, 1.92484779e+01, 1.38012802e+02, 1.02320313e+02,
          8.55520020e+01, 9.82850418e+01, 1.59960007e+02, 1.00562897e+02,
          1.03678398e+02, 1.02817482e+02, 8.54720020e+00, 1.40562165e+00,
          1.21040001e+01, 1.52781277e+01, 2.11647995e+02, 6.30447540e+01,
          2.40244797e+02, 2.01734304e+00, 2.38414398e+02, 7.80703974e+00,
          2.14112000e+02, 5.85339050e+01, 1.01087999e+01, 3.85717034e+00,
          8.64000034e+00, 1.50093305e+00, 3.92719994e+01, 6.66803665e+01,
          7.41055984e+01, 9.28522491e+01, 2.49472008e+01, 4.17373352e+01,
          7.65584030e+01, 9.27924118e+01, 8.83040047e+00, 1.78348982e+00,
          1.01199999e+01, 1.97261250e+00, 9., 0., 9., 0., 9.01760006e+00,
          1.31492361e-01, 9.10239983e+00, 4.26044881e-01, 9., 0.,
          1.06703997e+01, 1.82607877e+00, 9.46720028e+00, 1.04581273e+00,
          9.02880001e+00, 2.92524457e-01, 9.07359982e+00, 6.43259704e-01,
          9.10879993e+00, 4.53610569e-01, 9., 0., 1.23936005e+01,
          1.16425037e+00, 1.05439997e+01, 1.14475501e+00, 1.00431995e+01,
          7.79572785e-01, 9.79520035e+00, 6.71458840e-01, 9.41919994e+00,
          4.93428171e-01, 9.21280003e+00, 7.80458927e-01, 9.35999966e+00,
          1.65891528e+00, 9.74079990e+00, 1.42885101e+00, 9.76000023e+00,
          1.21194065e+00, 9.95199966e+00, 3.76425296e-01, 10., 0.,
          1.00031996e+01, 5.64779602e-02 ]
      - [ 1.05103998e+01, 1.06596994e+00, 10., 0., 9.73600006e+00,
          7.97435880e-01, 1.00576000e+01, 4.11682218e-01, 10., 0.,
          1.00271997e+01, 1.55873668e+00, 1.06079998e+01, 1.24512494e+00,
          1.00112000e+01, 7.64116824e-01, 1.38959999e+01, 1.98267803e+01,
          2.04272003e+01, 3.02657280e+01, 1.02735996e+01, 8.92828703e-01,
          9.53919983e+00, 1.35486650e+00, 1.03808002e+01, 3.04193878e+00,
          7.43455963e+01, 7.21312256e+01, 1.54356796e+02, 5.05016327e+01,
          1.61608002e+02, 4.19974670e+01, 7.26800003e+01, 7.19713974e+01,
          1.10383997e+01, 9.55297470e+00, 1.05327997e+01, 1.37844992e+00,
          4.27375984e+01, 5.87036362e+01, 1.35595200e+02, 6.43373184e+01,
          1.64596802e+02, 3.84197121e+01, 8.93631973e+01, 7.42944260e+01,
          1.54927998e+01, 2.36908150e+01, 1.03727999e+01, 1.26499808e+00,
          9.86880016e+00, 1.22326875e+00, 1.12047997e+01, 8.38071918e+00,
          1.85072002e+01, 2.64560070e+01, 9.92959976e+00, 1.18044221e+00,
          9.77600002e+00, 1.18432426e+00, 1.07312002e+01, 1.92201626e+00,
          5.04752007e+01, 6.58039474e+01, 1.36686401e+02, 6.70871735e+01,
          1.50264008e+02, 5.56462173e+01, 5.71871986e+01, 6.67918472e+01,
          1.01247997e+01, 3.28201532e+00, 1.08736000e+01, 6.29374456e+00,
          7.48784027e+01, 7.31008377e+01, 1.62030396e+02, 4.19045105e+01,
          1.76408005e+02, 1.48275938e+01, 1.15748802e+02, 7.30533752e+01,
          2.02576008e+01, 2.98092480e+01, 8.62559986e+00, 7.80143976e-01,
          9.47840023e+00, 8.74490380e-01, 1.82703991e+01, 3.07549610e+01,
          3.59407997e+01, 5.48502960e+01, 9.67360020e+00, 1.31661046e+00,
          9.99040031e+00, 3.53139967e-01, 8.80160046e+00, 8.61067593e-01,
          9.31200027e+00, 4.63309824e-01, 9.98400021e+00, 1.25475094e-01,
          1.00256004e+01, 2.24821344e-01, 1.00511999e+01, 3.15877438e-01,
          1.02687998e+01, 6.82163119e-01, 8.89920044e+00, 2.09404850e+00,
          9., 1.72788894e+00, 1.00544004e+01, 2.53457367e-01,
          9.49600029e+00, 1.77639639e+00, 1.03151999e+01, 1.37340784e+00,
          1.03984003e+01, 1.08649778e+00 ]
      - [ 1.24496002e+01, 1.68126738e+00, 1.24208002e+01, 9.83324647e-01,
          1.32511997e+01, 1.34554768e+00, 1.17967997e+01, 1.43955195e+00,
          1.19616003e+01, 1.39431894e+00, 1.20671997e+01, 1.95435011e+00,
          1.10176001e+01, 2.01307988e+00, 1.01104002e+01, 2.31495404e+00,
          1.18688002e+01, 1.69386733e+00, 1.13487997e+01, 1.62183189e+00,
          1.41935997e+01, 1.72769177e+00, 1.29119997e+01, 2.77882266e+00,
          1.16336002e+01, 2.25462890e+00, 3.42736015e+01, 5.10964317e+01,
          1.25503998e+01, 4.15050125e+00, 2.39936008e+01, 3.01032352e+01,
          2.59824009e+01, 3.75592728e+01, 1.23584003e+01, 1.95211411e+00,
          1.39935999e+01, 3.76339722e+00, 1.91399994e+02, 5.62047691e+01,
          1.76500793e+02, 7.08397903e+01, 2.06348801e+02, 3.36097107e+01,
          2.02401596e+02, 4.04854202e+01, 3.06784000e+01, 4.42114601e+01,
          1.43120003e+01, 2.26774240e+00, 8.61503983e+01, 8.64981689e+01,
          1.64414398e+02, 8.08762207e+01, 1.27865601e+02, 9.05228043e+01,
          1.68083206e+02, 7.48780518e+01, 4.31391983e+01, 5.67873077e+01,
          1.46688004e+01, 3.61561990e+00, 8.15775986e+01, 8.33419800e+01,
          2.95167999e+01, 3.54644623e+01, 6.94960022e+01, 7.77779007e+01,
          7.23871994e+01, 7.96599808e+01, 1.61040001e+01, 3.11698318e+00,
          1.49840002e+01, 3.18241167e+00, 1.89987198e+02, 6.49593811e+01,
          2.21812805e+02, 8.91229248e+00, 2.22700806e+02, 2.46221018e+00,
          2.20151993e+02, 1.43517284e+01, 4.07103996e+01, 5.14606590e+01,
          1.36127996e+01, 1.39042306e+00, 4.49440002e+01, 6.34991798e+01,
          1.00222397e+02, 9.20595627e+01, 6.22736015e+01, 7.38060379e+01,
          1.05307198e+02, 9.28033676e+01, 2.56063995e+01, 3.19731674e+01,
          1.27776003e+01, 1.93497753e+00, 1.26224003e+01, 2.14397264e+00,
          1.33760004e+01, 1.73465383e+00, 1.26800003e+01, 1.48916090e+00,
          1.40480003e+01, 1.24871778e+00, 1.45967999e+01, 1.89415669e+00,
          1.33487997e+01, 2.80455685e+00, 1.45279999e+01, 2.28026676e+00,
          1.33263998e+01, 2.10348821e+00, 1.40447998e+01, 1.50026429e+00,
          1.44432001e+01, 2.09618068e+00, 1.39759998e+01, 1.24105763e+00 ]
      - [ 8.32800007e+00, 1.90735841e+00, 8.46879959e+00, 1.25579715e+00,
          9.14080048e+00, 1.00527382e+00, 8.66079998e+00, 7.63245285e-01,
          8.76319981e+00, 6.46162331e-01, 8.55840015e+00, 8.69131446e-01,
          8.37440014e+00, 1.03721964e+00, 8.99680042e+00, 2.33216122e-01,
          9., 0., 8.72159958e+00, 8.30959320e-01, 8.29759979e+00,
          1.13606083e+00, 8.87199974e+00, 5.84821343e-01, 8.31200027e+00,
          1.11294925e+00, 8.96319962e+00, 9.55115557e-01, 9., 0., 9., 0.,
          9., 0., 8.96160030e+00, 3.55704159e-01, 8.07999992e+00,
          1.42772543e+00, 1.06879997e+01, 4.69044304e+00, 8.78719997e+00,
          9.78731930e-01, 9.26399994e+00, 2.25048971e+00, 8.90719986e+00,
          1.33183634e+00, 9.06400013e+00, 1.22731578e+00, 1.07983999e+01,
          7.46946812e+00, 5.08975983e+01, 2.81842346e+01, 3.86671982e+01,
          2.85264454e+01, 4.18751984e+01, 2.42925587e+01, 4.21503983e+01,
          2.77404499e+01, 1.07760000e+01, 7.77736616e+00, 9.17440033e+00,
          3.30865288e+00, 4.47984009e+01, 2.86832237e+01, 4.19407997e+01,
          2.32732220e+01, 3.73040009e+01, 2.66656399e+01, 4.49487991e+01,
          2.48875351e+01, 1.89936008e+01, 2.24062119e+01, 8.47519970e+00,
          8.79877806e-01, 1.08895998e+01, 7.15154600e+00, 1.21040001e+01,
          9.60901546e+00, 9.27200031e+00, 8.40723515e-01, 1.08288002e+01,
          6.49315739e+00, 9.12479973e+00, 1.10291660e+00, 9.25119972e+00,
          1.19033551e+00, 9.57439995e+00, 1.00621307e+00, 9.15359974e+00,
          1.13225746e+00, 8.54399967e+00, 1.21526289e+00, 8.77919960e+00,
          1.20235074e+00, 8.92319965e+00, 4.93661582e-01, 8.96319962e+00,
          1.73995566e+00, 1.02175999e+01, 6.74574137e-01, 9.67039967e+00,
          1.24328756e+00, 9.86719990e+00, 8.76335621e-01, 9.76640034e+00,
          4.23120588e-01, 9.45279980e+00, 7.70306528e-01, 9.48799992e+00,
          1.52848160e+00, 9.75679970e+00, 8.10958564e-01, 10., 0., 10.,
          0., 10., 0., 9.82719994e+00, 6.98956490e-01 ]
      - [ 8.36800003e+00, 1.75879955e+00, 9.16959953e+00, 1.48809803e+00,
          9.16160011e+00, 6.79621518e-01, 9.69919968e+00, 6.59029126e-01,
          1.01440001e+01, 5.78328609e-01, 9.56799984e+00, 1.40590751e+00,
          9.15359974e+00, 6.61216319e-01, 8.99680042e+00, 4.56058949e-01,
          9.09920025e+00, 1.18514109e+00, 9.18239975e+00, 1.27950394e+00,
          9.95680046e+00, 2.03307062e-01, 1.01375999e+01, 8.33466411e-01,
          9.10560036e+00, 5.52855015e-01, 1.00447998e+01, 1.81228948e+00,
          4.18240013e+01, 5.87645416e+01, 4.41567993e+01, 6.07593117e+01,
          9.71679974e+00, 2.40561795e+00, 1.00944004e+01, 1.47698629e+00,
          1.29136000e+01, 1.67390003e+01, 1.10609596e+02, 7.22013702e+01,
          1.78196793e+02, 1.28007994e+01, 1.79832001e+02, 6.11533928e+00,
          1.23129601e+02, 6.77445145e+01, 1.56560001e+01, 2.19875259e+01,
          8.59679985e+00, 1.59418619e+00, 2.83391991e+01, 4.47799263e+01,
          1.02803200e+02, 7.62901306e+01, 1.02601601e+02, 7.76228409e+01,
          2.17936001e+01, 4.05781479e+01, 8.68319988e+00, 1.62444997e+00,
          9.05760002e+00, 4.11682218e-01, 9.27680016e+00, 1.52583802e+00,
          4.20144005e+01, 5.94940109e+01, 4.91823997e+01, 6.46053772e+01,
          9.30080032e+00, 3.96372533e+00, 9.32320023e+00, 1.63986027e+00,
          1.14624004e+01, 1.36426020e+01, 1.07769600e+02, 7.35251236e+01,
          1.81091202e+02, 1.41803131e+01, 1.82249603e+02, 4.44541311e+00,
          1.31265594e+02, 6.81505356e+01, 1.66320000e+01, 2.35357552e+01,
          9.04160023e+00, 8.39922309e-01, 2.24752007e+01, 3.68804741e+01,
          9.29216003e+01, 7.77877426e+01, 1.00401604e+02, 8.03875198e+01,
          2.07199993e+01, 3.71591187e+01, 8.92800045e+00, 7.93735445e-01,
          8.95839977e+00, 3.32068413e-01, 9.16320038e+00, 6.80415869e-01,
          9.85919952e+00, 1.50498354e+00, 8.95040035e+00, 9.67853189e-01,
          9., 0., 9., 0., 9.14560032e+00, 9.06642497e-01, 9.27999973e+00,
          1.05071402e+00, 1.01056004e+01, 1.19132221e+00, 9.22399998e+00,
          9.94898975e-01, 9.51679993e+00, 4.99717683e-01, 9.50399971e+00,
          6.93097413e-01 ]
      - [ 2.62672005e+01, 4.53286362e+01, 5.26879978e+00, 1.55581057e+00,
          5.42399979e+00, 1.21894383e+00, 5.65119982e+00, 9.99168932e-01,
          5.69280005e+00, 8.95336926e-01, 9.08800030e+00, 1.40392685e+01,
          1.77759991e+01, 3.37629051e+01, 6., 0., 6., 0., 6., 0., 6., 0.,
          6.85279989e+00, 4.81604958e+00, 1.67327995e+01, 3.16723824e+01,
          6., 0., 6., 0., 6., 0., 6., 0., 6.50080013e+00, 3.24672127e+00,
          1.45327997e+01, 2.73348293e+01, 5.94080019e+00, 8.78917158e-01,
          1.20895996e+01, 2.91446323e+01, 9.76159954e+00, 2.27664127e+01,
          6.04960012e+00, 8.95734251e-01, 6.22399998e+00, 2.27706480e+00,
          1.60352001e+01, 3.04642792e+01, 4.14351997e+01, 5.71841049e+01,
          5.55951996e+01, 4.52406998e+01, 5.57263985e+01, 4.86741371e+01,
          4.20480003e+01, 5.91210365e+01, 7.43359995e+00, 1.21665440e+01,
          1.42528000e+01, 2.90959816e+01, 4.03391991e+01, 5.69632301e+01,
          5.66752014e+01, 4.83232613e+01, 5.59504013e+01, 5.14580307e+01,
          3.44575996e+01, 5.48162193e+01, 6.09119987e+00, 2.32268858e+00,
          1.16079998e+01, 2.05127449e+01, 5.99200010e+00, 3.64329517e-01,
          9.78719997e+00, 2.24460487e+01, 7.43039989e+00, 1.05717525e+01,
          6., 0., 5.90560007e+00, 1.07288802e+00, 1.02511997e+01,
          1.64438229e+01, 6., 0., 6., 0., 6., 0., 6., 0., 5.99679995e+00,
          1.15377200e+00, 9.60000038e+00, 1.40119953e+01, 6., 0.,
          6.17280006e+00, 3.78074288e-01, 6.10239983e+00, 3.60990644e-01,
          6.00640011e+00, 1.12955920e-01, 5.98880005e+00, 1.01895761e+00,
          1.19392004e+01, 2.06881485e+01, 5.61920023e+00, 9.42651212e-01,
          5.63840008e+00, 1.08537805e+00, 5.67840004e+00, 1.01221216e+00,
          6.76000023e+00, 4.86620998e+00, 1.49712000e+01, 2.62327271e+01 ]
      - [ 2.60848007e+01, 3.73257751e+01, 1.06688004e+01, 1.42685199e+00,
          1.12080002e+01, 2.23032188e+00, 1.17231998e+01, 2.77160263e+00,
          1.10832005e+01, 1.27603984e+00, 1.25200005e+01, 1.33915796e+01,
          1.92367992e+01, 2.68107719e+01, 3.63311996e+01, 5.31129265e+01,
          6.48591995e+01, 5.32453270e+01, 6.80255966e+01, 5.17148132e+01,
          4.39455986e+01, 5.66410484e+01, 1.17888002e+01, 3.69304681e+00,
          1.90319996e+01, 2.42577286e+01, 5.74416008e+01, 6.37952499e+01,
          6.77360001e+01, 4.35891266e+01, 6.54767990e+01, 3.94910393e+01,
          5.66143990e+01, 5.90033760e+01, 1.76720009e+01, 3.09484673e+01,
          1.63311996e+01, 2.02652187e+01, 1.11408005e+01, 1.02419496e+00,
          2.48111992e+01, 4.20859261e+01, 3.18624001e+01, 5.07746429e+01,
          1.27119999e+01, 2.05296278e+00, 1.24239998e+01, 1.60630763e+00,
          1.73504009e+01, 2.00802498e+01, 5.01264000e+01, 6.04691658e+01,
          6.82528000e+01, 4.68540878e+01, 6.79776001e+01, 4.33290596e+01,
          5.44448013e+01, 5.86800995e+01, 1.77264004e+01, 2.96095181e+01,
          1.38031998e+01, 9.98805618e+00, 4.38639984e+01, 5.76834602e+01,
          6.98479996e+01, 5.29681053e+01, 6.93152008e+01, 5.02671394e+01,
          4.73296013e+01, 5.82186508e+01, 1.43087997e+01, 1.04773588e+01,
          1.19631996e+01, 4.06431389e+00, 1.13087997e+01, 9.47756588e-01,
          2.83167992e+01, 4.46767120e+01, 3.32975998e+01, 4.85298538e+01,
          1.36112003e+01, 1.58114982e+00, 1.26127996e+01, 1.24983048e+00,
          1.55087996e+01, 2.01612778e+01, 6.33152008e+01, 6.28982010e+01,
          6.82351990e+01, 3.84669495e+01, 6.65856018e+01, 3.62051849e+01,
          6.51007996e+01, 6.14097672e+01, 1.99712009e+01, 3.10817108e+01,
          1.14496002e+01, 1.92609966e+00, 3.63055992e+01, 5.31196480e+01,
          6.60640030e+01, 5.38330078e+01, 6.62847977e+01, 5.34509468e+01,
          4.03040009e+01, 5.30380135e+01, 1.49983997e+01, 2.08115292e+00,
          1.19136000e+01, 1.00028267e+01, 1.11664000e+01, 1.61626458e+00,
          1.14496002e+01, 1.77838683e+00, 1.38912001e+01, 2.47179341e+00,
          1.38688002e+01, 2.96789265e+00, 1.52832003e+01, 9.00158882e+00 ]
      - [ 1.76975994e+01, 3.12359753e+01, 7.23040009e+00, 3.97246981e+00,
          9.09440041e+00, 8.98883152e+00, 9.17280006e+00, 8.71571827e+00,
          7.40799999e+00, 5.05220127e+00, 7.82399988e+00, 1.19373455e+01,
          1.35360003e+01, 2.06033573e+01, 5.24351997e+01, 4.81460724e+01,
          5.16384010e+01, 3.96640358e+01, 5.16752014e+01, 4.09550591e+01,
          5.36528015e+01, 4.87292213e+01, 9.41600037e+00, 1.71694546e+01,
          1.31487999e+01, 1.89315052e+01, 5.39407997e+01, 4.71676636e+01,
          3.89552002e+01, 1.10981617e+01, 3.82400017e+01, 1.04465113e+01,
          5.16223984e+01, 4.67276840e+01, 1.05712004e+01, 2.15539913e+01,
          1.14496002e+01, 1.61628056e+01, 1.74015999e+01, 3.47063599e+01,
          3.89216003e+01, 6.00555115e+01, 3.89151993e+01, 6.05187492e+01,
          1.83311996e+01, 3.64435883e+01, 7.34399986e+00, 1.80622923e+00,
          1.16784000e+01, 1.60969238e+01, 5.80480003e+01, 5.26674500e+01,
          5.20447998e+01, 3.74656067e+01, 4.89984016e+01, 3.56081581e+01,
          5.80783997e+01, 5.13737221e+01, 9.15839958e+00, 1.10793009e+01,
          1.21311998e+01, 1.64204388e+01, 5.73552017e+01, 5.11727600e+01,
          4.91903992e+01, 3.26566200e+01, 4.92575989e+01, 3.42460175e+01,
          5.80208015e+01, 5.08721161e+01, 9.44639969e+00, 1.05336380e+01,
          1.13968000e+01, 1.51520081e+01, 1.83616009e+01, 3.60365639e+01,
          4.12463989e+01, 6.22256279e+01, 4.11440010e+01, 6.19025955e+01,
          1.83407993e+01, 3.66730957e+01, 8.58559990e+00, 1.24043238e+00,
          1.36272001e+01, 2.10734386e+01, 5.20400009e+01, 4.80437469e+01,
          3.95040016e+01, 1.11070604e+01, 4.07823982e+01, 1.43758917e+01,
          5.61104012e+01, 4.95030556e+01, 9.65279961e+00, 7.48242283e+00,
          1.25696001e+01, 1.76057816e+01, 5.26431999e+01, 4.72964325e+01,
          5.12928009e+01, 4.03810539e+01, 5.39823990e+01, 4.18450241e+01,
          5.50463982e+01, 4.89816895e+01, 9.21599960e+00, 5.51939726e+00,
          1.52480001e+01, 2.55786953e+01, 7.73759985e+00, 6.13122702e+00,
          9.95199966e+00, 1.19530125e+01, 9.95839977e+00, 1.22680016e+01,
          7.93919992e+00, 5.00075006e+00, 1.43599997e+01, 2.14778767e+01 ]
      - [ 2.30816002e+01, 2.93636742e+01, 1.30304003e+01, 1.84625995e+00,
          1.41680002e+01, 2.54034948e+00, 1.33263998e+01, 2.18262744e+00,
          1.35439997e+01, 2.47839952e+00, 1.40656004e+01, 1.03257589e+01,
          1.98784008e+01, 2.18212643e+01, 1.48271999e+01, 1.06683648e+00,
          1.59247999e+01, 4.10785794e-01, 1.54848003e+01, 9.06955898e-01,
          1.49695997e+01, 1.06464827e+00, 1.50847998e+01, 1.49800169e+00,
          1.99776001e+01, 2.09727325e+01, 1.56431999e+01, 9.18636918e-01,
          1.59968004e+01, 5.64779602e-02, 1.55743999e+01, 1.04060781e+00,
          1.56239996e+01, 9.24891353e-01, 1.47664003e+01, 2.30543518e+00,
          2.04543991e+01, 2.21441441e+01, 1.54208002e+01, 3.40548491e+00,
          1.60319996e+01, 7.19288528e-01, 1.57584000e+01, 2.70422435e+00,
          1.57536001e+01, 1.72698784e+00, 1.48367996e+01, 2.54286575e+00,
          2.00895996e+01, 2.02653198e+01, 8.58287964e+01, 5.94653320e+01,
          6.12480011e+01, 5.49099693e+01, 7.59599991e+01, 4.88555412e+01,
          6.95568008e+01, 5.98174324e+01, 1.50047998e+01, 2.50854087e+00,
          1.94256001e+01, 1.87993526e+01, 6.17695999e+01, 5.94119034e+01,
          6.99664001e+01, 5.08390770e+01, 6.48112030e+01, 5.59452820e+01,
          8.18672028e+01, 5.89203110e+01, 1.48959999e+01, 2.65095901e+00,
          1.95216007e+01, 1.71257915e+01, 1.59071999e+01, 1.23975325e+00,
          1.56512003e+01, 1.70831454e+00, 1.59488001e+01, 8.20108891e-01,
          1.58591995e+01, 2.97337770e+00, 1.53439999e+01, 1.72280705e+00,
          1.84703999e+01, 1.42916870e+01, 16., 0., 16., 0.,
          1.60256004e+01, 1.57938719e-01, 1.60767994e+01, 2.66273856e-01,
          1.53968000e+01, 1.48463798e+00, 1.81504002e+01, 1.27013617e+01,
          16., 0., 16., 0., 16., 0., 16., 0., 1.57231998e+01,
          9.85587001e-01, 1.89487991e+01, 1.73034267e+01, 1.50656004e+01,
          1.67346847e+00, 1.49247999e+01, 1.71462679e+00, 1.48928003e+01,
          1.73335171e+00, 1.49968004e+01, 1.79153275e+00, 1.70991993e+01,
          1.27530298e+01 ]
      - [ 1.95599995e+01, 1.23708048e+01, 1.85200005e+01, 1.17029905e+00,
          1.85200005e+01, 1.17029905e+00, 1.84752007e+01, 1.23926795e+00,
          1.81583996e+01, 1.59565330e+00, 1.80960007e+01, 9.91566372e+00,
          1.78591995e+01, 4.10728312e+00, 1.90160007e+01, 4.03663218e-01,
          1.90303993e+01, 2.13250652e-01, 1.90832005e+01, 5.56666672e-01,
          1.89888000e+01, 5.01073420e-01, 1.79039993e+01, 2.01920390e+00,
          1.67119999e+01, 4.66410303e+00, 4.52704010e+01, 4.96062469e+01,
          5.02224007e+01, 4.85838852e+01, 4.90656013e+01, 4.90129509e+01,
          4.38288002e+01, 4.92179909e+01, 1.77119999e+01, 2.41533756e+00,
          2.12352009e+01, 2.49870510e+01, 5.45488014e+01, 4.02392998e+01,
          4.16048012e+01, 1.11301670e+01, 4.03423996e+01, 1.19980478e+01,
          5.59648018e+01, 4.08640518e+01, 1.79487991e+01, 7.76663256e+00,
          1.71872005e+01, 4.77880287e+00, 4.54496002e+01, 5.01453018e+01,
          4.92736015e+01, 4.79481773e+01, 4.90975990e+01, 4.80372696e+01,
          4.30607986e+01, 4.90637741e+01, 1.79071999e+01, 2.77434468e+00,
          1.78784008e+01, 3.75590372e+00, 5.04319992e+01, 5.08575935e+01,
          5.11727982e+01, 4.72561569e+01, 5.09952011e+01, 4.65864372e+01,
          4.85120010e+01, 5.10748825e+01, 1.77632008e+01, 3.70533752e+00,
          2.44624004e+01, 2.85581894e+01, 5.13520012e+01, 3.55480194e+01,
          4.03600006e+01, 1.05348186e+01, 4.03456001e+01, 1.22353811e+01,
          5.61055984e+01, 4.18722839e+01, 1.77824001e+01, 5.08085155e+00,
          1.88160000e+01, 3.43391085e+00, 4.03456001e+01, 4.47768021e+01,
          4.45391998e+01, 4.59721527e+01, 4.47280006e+01, 4.77636795e+01,
          3.79935989e+01, 4.37680435e+01, 1.85456009e+01, 3.68845773e+00,
          1.88400002e+01, 3.21645761e+00, 2.00095997e+01, 9.75081548e-02,
          2.01903992e+01, 3.92616659e-01, 2.05391998e+01, 5.29587924e-01,
          2.06320000e+01, 4.82261330e-01, 1.89743996e+01, 4.18905067e+00,
          2.17695999e+01, 1.95124092e+01, 1.95104008e+01, 3.90203691e+00,
          1.90272007e+01, 3.96959186e+00, 1.85599995e+01, 4.52725077e+00,
          1.97071991e+01, 4.82981014e+00, 2.50624008e+01, 1.99841766e+01 ]
      - [ 1.46224003e+01, 2.25784645e+01, 8.32479954e+00, 1.22446108e+00,
          8.13280010e+00, 1.66852152e+00, 8.19999981e+00, 1.24064505e+00,
          8.49440002e+00, 1.22129798e+00, 8.84959984e+00, 9.89366341e+00,
          1.12704000e+01, 1.23754148e+01, 9., 0., 9.07680035e+00,
          7.42227554e-01, 8.68480015e+00, 6.84579432e-01, 9.03839970e+00,
          2.74454802e-01, 7.93599987e+00, 1.81612337e+00, 1.11744003e+01,
          1.19897280e+01, 9.56000042e+00, 4.85732460e+00, 3.80288010e+01,
          5.41495628e+01, 3.93727989e+01, 5.43997383e+01, 1.00176001e+01,
          1.01408329e+01, 8.10079956e+00, 1.28040588e+00, 1.47407999e+01,
          2.37538052e+01, 6.63135986e+01, 6.12510719e+01, 4.39920006e+01,
          1.81309433e+01, 4.11296005e+01, 1.43357735e+01, 6.75792007e+01,
          6.17070274e+01, 1.20112000e+01, 2.22439899e+01, 1.08848000e+01,
          1.07390652e+01, 1.53199997e+01, 2.94806232e+01, 4.45936012e+01,
          5.47819939e+01, 4.37695999e+01, 5.49988060e+01, 1.40880003e+01,
          2.61067390e+01, 8.09440041e+00, 1.82315350e+00, 1.13696003e+01,
          1.22793894e+01, 1.55951996e+01, 2.96297855e+01, 4.57407990e+01,
          5.51063271e+01, 4.56944008e+01, 5.51335335e+01, 1.70160007e+01,
          3.29773712e+01, 8.13119984e+00, 1.73769581e+00, 1.45215998e+01,
          2.33996220e+01, 6.44191971e+01, 5.88906517e+01, 4.12848015e+01,
          1.50536804e+01, 4.21808014e+01, 1.86345310e+01, 6.45408020e+01,
          6.14501724e+01, 1.22192001e+01, 2.20007629e+01, 1.06496000e+01,
          9.72290230e+00, 9.61279964e+00, 6.16860390e+00, 3.77344017e+01,
          5.23149223e+01, 3.66832008e+01, 5.25646782e+01, 9.45119953e+00,
          3.19067693e+00, 8.30239964e+00, 1.29975164e+00, 1.04336004e+01,
          9.28616142e+00, 8.79839993e+00, 6.02127433e-01, 8.66079998e+00,
          7.50562012e-01, 8.43519974e+00, 9.02995527e-01, 9.00640011e+00,
          7.97435865e-02, 8.52320004e+00, 1.47941267e+00, 1.42192001e+01,
          2.32571354e+01, 6.77120018e+00, 1.22525525e+00, 6.87360001e+00,
          1.26302135e+00, 7.26079988e+00, 1.75384820e+00, 7.75680017e+00,
          1.78663194e+00, 9.74720001e+00, 1.40531597e+01 ]
      - [ 2.06191998e+01, 1.59462786e+01, 1.83999996e+01, 2.57930231e+00,
          1.84384003e+01, 2.86715984e+00, 1.83311996e+01, 3.22897911e+00,
          1.88959999e+01, 2.92909265e+00, 1.98080006e+01, 9.75696373e+00,
          1.93104000e+01, 7.55690765e+00, 20., 0., 20., 0., 20., 0.,
          2.00016003e+01, 3.99679877e-02, 1.95247993e+01, 1.51887619e+00,
          1.89328003e+01, 5.53204155e+00, 20., 0., 20., 0.,
          2.00639992e+01, 3.51999998e-01, 2.02800007e+01, 7.69415379e-01,
          1.92800007e+01, 1.28124940e+00, 1.90063992e+01, 5.24686193e+00,
          1.99568005e+01, 4.62745905e-01, 2.04416008e+01, 1.18447371e+01,
          2.34176006e+01, 2.38348999e+01, 2.01776009e+01, 6.68474555e-01,
          1.92863998e+01, 1.29721820e+00, 1.81760006e+01, 8.05507469e+00,
          4.49791985e+01, 4.95568962e+01, 5.55632019e+01, 4.36649017e+01,
          5.52672005e+01, 4.01438675e+01, 4.69855995e+01, 4.88631210e+01,
          2.30496006e+01, 2.45198193e+01, 1.78848000e+01, 8.30746269e+00,
          4.51087990e+01, 4.94530830e+01, 5.58944016e+01, 4.52546387e+01,
          5.63344002e+01, 4.15062218e+01, 4.59776001e+01, 4.88040619e+01,
          2.12831993e+01, 1.87090092e+01, 1.80928001e+01, 3.76735830e+00,
          2.00384007e+01, 7.51615226e-01, 2.04880009e+01, 1.00431194e+01,
          2.28015995e+01, 2.07105541e+01, 2.01536007e+01, 5.67456663e-01,
          1.93472004e+01, 1.18230796e+00, 1.86191998e+01, 2.42235255e+00,
          20., 0., 20., 0., 2.01536007e+01, 5.32547712e-01,
          2.14239998e+01, 1.05424094e+00, 2.10223999e+01, 1.60881889e+00,
          1.90447998e+01, 1.60735583e+00, 2.00400009e+01, 2.88444102e-01,
          2.00128002e+01, 1.12410672e-01, 2.03983994e+01, 9.54818010e-01,
          2.26912003e+01, 5.38741648e-01, 2.08160000e+01, 2.32132387e+00,
          1.86543999e+01, 4.83178663e+00, 1.94400005e+01, 1.89483511e+00,
          1.93104000e+01, 1.82944036e+00, 2.07807999e+01, 2.28909397e+00,
          2.19584007e+01, 2.24032807e+00, 2.07472000e+01, 7.16480923e+00 ]
      - [ 1.72591991e+01, 1.21924572e+01, 1.80272007e+01, 1.70858431e+00,
          1.79503994e+01, 1.70808077e+00, 1.81088009e+01, 1.73555827e+00,
          1.87040005e+01, 1.98886502e+00, 1.84015999e+01, 9.85691261e+00,
          1.60415993e+01, 5.13387489e+00, 5.00912018e+01, 5.20531998e+01,
          4.38320007e+01, 5.16186523e+01, 4.67439995e+01, 4.89927521e+01,
          3.63535995e+01, 4.39990692e+01, 1.85792007e+01, 2.14301825e+00,
          1.59376001e+01, 4.74949551e+00, 5.24207993e+01, 4.49048462e+01,
          4.05600014e+01, 1.17487020e+01, 5.76016006e+01, 4.43849297e+01,
          5.49199982e+01, 4.44377480e+01, 1.73519993e+01, 2.51477551e+00,
          1.66495991e+01, 4.32597017e+00, 3.26096001e+01, 4.26536331e+01,
          4.37327995e+01, 5.26371193e+01, 2.05727997e+01, 1.97135048e+01,
          4.27599983e+01, 5.31302109e+01, 1.76800003e+01, 2.37116003e+00,
          1.65440006e+01, 3.81890869e+00, 6.59135971e+01, 5.53312531e+01,
          5.29967995e+01, 5.12263069e+01, 5.71647987e+01, 4.74889793e+01,
          5.04879990e+01, 5.26472969e+01, 1.78976002e+01, 2.24550986e+00,
          1.66800003e+01, 4.24113178e+00, 5.57999992e+01, 5.26906128e+01,
          5.88639984e+01, 4.68143806e+01, 5.19728012e+01, 5.01493530e+01,
          6.72720032e+01, 5.65330315e+01, 1.84992008e+01, 2.18732691e+00,
          1.64559994e+01, 4.96306992e+00, 4.07375984e+01, 4.97706909e+01,
          2.26079998e+01, 2.56394997e+01, 4.20512009e+01, 5.10644188e+01,
          2.71359997e+01, 3.40549545e+01, 1.95471992e+01, 1.74944913e+00,
          1.59167995e+01, 4.71824932e+00, 4.99840012e+01, 3.98724747e+01,
          5.22127991e+01, 4.09878540e+01, 3.73759995e+01, 1.01003475e+01,
          5.42607994e+01, 4.94271584e+01, 1.99951992e+01, 2.14027500e+00,
          1.67311993e+01, 5.26768875e+00, 4.04287987e+01, 4.38600502e+01,
          4.78320007e+01, 4.67012863e+01, 4.27536011e+01, 4.94746475e+01,
          5.25568008e+01, 5.32528191e+01, 2.05872002e+01, 2.02997446e+00,
          1.89183998e+01, 1.30840263e+01, 1.81776009e+01, 1.89453375e+00,
          1.85104008e+01, 1.54100347e+00, 1.90368004e+01, 1.41769028e+00,
          2.03279991e+01, 1.49867141e+00, 2.16032009e+01, 9.70736599e+00 ]
      - [ 1.39040003e+01, 2.53203545e+01, 5.54400015e+00, 2.90848136e+00,
          5.01119995e+00, 1.71063566e+00, 5.02400017e+00, 1.68315899e+00,
          5.03359985e+00, 1.81032348e+00, 8.19519997e+00, 1.80071182e+01,
          8.15200043e+00, 7.80897522e+00, 6., 0., 6., 0., 6., 0., 6., 0.,
          5.31839991e+00, 1.49004078e+00, 7.71519995e+00, 6.91610336e+00,
          6., 0., 6., 0., 6., 0., 6.03200006e+00, 1.75999999e-01,
          5.49599981e+00, 1.33281052e+00, 7.53919983e+00, 6.67931604e+00,
          7.57760000e+00, 7.78290272e+00, 5.95200014e+00, 1.04350185e+00,
          6.49760008e+00, 1.62295854e+00, 6.15999985e+00, 1.21983600e+00,
          6.02559996e+00, 1.72584605e+00, 7.34719992e+00, 5.22481108e+00,
          6.37103996e+01, 5.57987595e+01, 5.26128006e+01, 5.23950882e+01,
          5.83103981e+01, 4.99333267e+01, 5.33423996e+01, 5.66493301e+01,
          6.35200024e+00, 1.99301183e+00, 6.70240021e+00, 3.85593486e+00,
          5.14272003e+01, 5.64135170e+01, 5.86959991e+01, 5.01801605e+01,
          4.81184006e+01, 5.58257179e+01, 6.84207993e+01, 5.94477577e+01,
          7.50239992e+00, 6.40178061e+00, 6.11359978e+00, 1.96649313e+00,
          6.01760006e+00, 1.39760160e+00, 6.70400000e+00, 1.73815536e+00,
          6.88640022e+00, 1.07846880e+00, 7.28639984e+00, 2.28236175e+00,
          5.47840023e+00, 1.72230470e+00, 5.89279985e+00, 1.44876087e+00,
          5.94719982e+00, 3.82115364e-01, 6.29920006e+00, 6.84747636e-01,
          6.90240002e+00, 4.29038733e-01, 6.14879990e+00, 4.17921722e-01,
          5.63679981e+00, 1.69165182e+00, 5.71040010e+00, 1.35090041e+00,
          6., 0., 6., 0., 6.10080004e+00, 3.72343063e-01, 6., 0.,
          5.94080019e+00, 1.04828215e+00, 8.55840015e+00, 1.61843433e+01,
          5.30880022e+00, 1.43074894e+00, 5.13439989e+00, 1.61825109e+00,
          5.05280018e+00, 1.73770308e+00, 5.13600016e+00, 1.64994061e+00,
          8.75199986e+00, 1.53542986e+01 ]
      - [ 2.26079998e+01, 1.21950130e+01, 2.37327995e+01, 1.04067965e+01,
          2.74400005e+01, 2.20499802e+01, 2.78911991e+01, 1.96892910e+01,
          2.45967999e+01, 9.76117992e+00, 2.44144001e+01, 1.07146006e+01,
          2.07439995e+01, 6.42781973e+00, 5.85760002e+01, 4.85778008e+01,
          5.18303986e+01, 3.77152290e+01, 5.35120010e+01, 3.92214241e+01,
          5.76031990e+01, 4.88086166e+01, 2.67327995e+01, 1.65444546e+01,
          2.16047993e+01, 6.90082741e+00, 5.91711998e+01, 4.90164146e+01,
          4.60559998e+01, 2.59994164e+01, 4.57056007e+01, 2.48143768e+01,
          5.71503983e+01, 4.75061226e+01, 2.78512001e+01, 1.88937721e+01,
          2.13759995e+01, 4.97331095e+00, 2.95007992e+01, 3.15885620e+01,
          5.02448006e+01, 5.79292488e+01, 5.08544006e+01, 5.85156097e+01,
          3.14319992e+01, 3.49384689e+01, 2.44703999e+01, 1.85373247e+00,
          2.15695992e+01, 7.35991526e+00, 5.82655983e+01, 4.85397301e+01,
          4.25536003e+01, 1.50190525e+01, 4.27760010e+01, 1.46010761e+01,
          5.66959991e+01, 4.60136375e+01, 2.60112000e+01, 2.01903305e+01,
          2.20767994e+01, 5.54924345e+00, 5.97407990e+01, 5.11805916e+01,
          5.69071999e+01, 4.53068581e+01, 5.62368011e+01, 4.42051048e+01,
          6.02463989e+01, 5.04340858e+01, 2.58768005e+01, 1.78490334e+01,
          2.22063999e+01, 3.95663977e+00, 3.05552006e+01, 3.14545097e+01,
          4.21552010e+01, 4.55645103e+01, 4.36255989e+01, 4.82459755e+01,
          3.18591995e+01, 3.41972084e+01, 2.52240009e+01, 1.63101935e+00,
          2.23423996e+01, 7.81677437e+00, 5.53040009e+01, 4.44233856e+01,
          4.07344017e+01, 1.24637012e+01, 4.21328011e+01, 1.05569677e+01,
          5.18559990e+01, 4.30393486e+01, 2.86928005e+01, 2.37161560e+01,
          2.10256004e+01, 5.85772514e+00, 5.55407982e+01, 4.59325638e+01,
          5.43311996e+01, 3.92780952e+01, 5.82575989e+01, 4.00434074e+01,
          5.58720016e+01, 4.73405342e+01, 2.74144001e+01, 1.68253937e+01,
          2.12992001e+01, 1.02363310e+01, 2.23279991e+01, 2.40458226e+00,
          2.40048008e+01, 3.34783173e+00, 2.50048008e+01, 3.83061051e+00,
          2.49407997e+01, 2.76284194e+00, 2.53887997e+01, 3.58095431e+00 ]
      - [ 1.96944008e+01, 1.61841717e+01, 1.75487995e+01, 2.13645005e+00,
          1.74624004e+01, 2.21896052e+00, 1.76944008e+01, 2.01221490e+00,
          1.75680008e+01, 2.13742280e+00, 1.70639992e+01, 5.15944815e+00,
          1.88463993e+01, 6.70513296e+00, 1.90016003e+01, 3.99679877e-02,
          1.87887993e+01, 7.02135742e-01, 1.89615993e+01, 4.36492205e-01,
          1.87311993e+01, 6.96093798e-01, 1.75328007e+01, 1.77519691e+00,
          1.77936001e+01, 6.57003784e+00, 4.12112007e+01, 5.24498711e+01,
          2.06032009e+01, 1.63909054e+01, 4.25839996e+01, 5.62077827e+01,
          2.73952007e+01, 3.56065483e+01, 1.72336006e+01, 1.93820310e+00,
          1.70767994e+01, 4.99060154e+00, 6.42511978e+01, 4.74388123e+01,
          6.68623962e+01, 4.95320511e+01, 5.02480011e+01, 1.67603607e+01,
          6.57600021e+01, 5.09261093e+01, 1.75312004e+01, 2.98787999e+00,
          1.79391994e+01, 6.46735668e+00, 4.84399986e+01, 5.45806122e+01,
          5.72624016e+01, 5.56746979e+01, 4.80512009e+01, 5.72478714e+01,
          6.20656013e+01, 6.08693581e+01, 1.64736004e+01, 4.57503033e+00,
          1.88416004e+01, 7.75456715e+00, 5.86815987e+01, 5.85719604e+01,
          4.92256012e+01, 5.82813492e+01, 5.49104004e+01, 5.60282936e+01,
          4.52928009e+01, 5.37961693e+01, 1.54912004e+01, 3.14457035e+00,
          1.79727993e+01, 4.92512560e+00, 6.24239998e+01, 5.00483398e+01,
          5.05295982e+01, 1.95942726e+01, 6.59952011e+01, 5.08898277e+01,
          7.06383972e+01, 5.19069672e+01, 1.75888004e+01, 4.13401937e+00,
          1.78031998e+01, 4.04905796e+00, 3.09312000e+01, 4.06858788e+01,
          4.35984001e+01, 5.69243736e+01, 1.98911991e+01, 5.39816284e+00,
          3.98800011e+01, 5.12192764e+01, 1.75855999e+01, 3.37796879e+00,
          1.65615997e+01, 3.19095683e+00, 1.81359997e+01, 1.09210992e+00,
          1.81343994e+01, 1.10323918e+00, 2.01551991e+01, 5.24512112e-01,
          1.96448002e+01, 6.10764265e-01, 1.81184006e+01, 2.51880550e+00,
          1.63920002e+01, 1.06135731e+01, 1.64095993e+01, 1.57029545e+00,
          1.74880009e+01, 1.96292031e+00, 1.83327999e+01, 2.32440186e+00,
          1.79808006e+01, 1.83118308e+00, 1.86224003e+01, 1.12914047e+01 ]
      - [ 1.76784000e+01, 2.31092148e+01, 1.04111996e+01, 1.06682456e+00,
          1.03615999e+01, 1.08685112e+00, 1.05632000e+01, 1.14245605e+00,
          1.06239996e+01, 9.70476151e-01, 1.07376003e+01, 5.26618910e+00,
          1.50319996e+01, 1.45609541e+01, 1.10447998e+01, 6.70218587e-01,
          1.10944004e+01, 4.72322613e-01, 1.10992002e+01, 4.96144503e-01,
          1.11423998e+01, 8.82112384e-01, 1.05391998e+01, 8.97364676e-01,
          1.48160000e+01, 1.43151855e+01, 4.53247986e+01, 5.61090240e+01,
          5.52047997e+01, 5.65380974e+01, 5.52239990e+01, 5.61179695e+01,
          4.79231987e+01, 5.73394699e+01, 1.07855997e+01, 1.35367382e+00,
          1.72287998e+01, 1.92860680e+01, 7.15744019e+01, 4.52166138e+01,
          5.40320015e+01, 1.39853268e+01, 5.60943985e+01, 1.49160547e+01,
          6.73840027e+01, 4.09825706e+01, 1.62959995e+01, 2.22292137e+01,
          1.42768002e+01, 1.20707989e+01, 4.95615997e+01, 5.75470581e+01,
          5.61360016e+01, 5.52221336e+01, 5.65200005e+01, 5.54167061e+01,
          4.82319984e+01, 5.80813408e+01, 1.13008003e+01, 1.20628333e+00,
          1.40176001e+01, 9.90473080e+00, 4.97568016e+01, 5.62769852e+01,
          5.97648010e+01, 5.35756416e+01, 5.83871994e+01, 5.24529228e+01,
          5.40064011e+01, 5.79261589e+01, 1.17567997e+01, 1.46261883e+00,
          1.72784004e+01, 1.86847343e+01, 6.93567963e+01, 4.50291901e+01,
          5.46208000e+01, 1.34668264e+01, 5.58047981e+01, 1.38286762e+01,
          6.74639969e+01, 4.20457916e+01, 1.76383991e+01, 2.45018940e+01,
          1.48688002e+01, 1.19577417e+01, 4.53359985e+01, 5.55483704e+01,
          5.42655983e+01, 5.47246475e+01, 5.53695984e+01, 5.49346619e+01,
          4.50351982e+01, 5.52846489e+01, 1.38624001e+01, 8.71014476e-01,
          1.45215998e+01, 1.24575415e+01, 1.29471998e+01, 1.20482874e+00,
          1.39728003e+01, 1.62665799e-01, 14., 0., 1.39776001e+01,
          2.32159942e-01, 1.39519997e+01, 4.24377203e-01, 1.74655991e+01,
          1.99006138e+01, 1.12063999e+01, 1.33648753e+00, 1.22608004e+01,
          1.73734951e+00, 1.30607996e+01, 1.33368039e+00, 1.25120001e+01,
          1.58601892e+00, 1.38783998e+01, 4.23107719e+00 ]
      - [ 1.38976002e+01, 1.75997925e+01, 9.61600018e+00, 8.79854560e-01,
          1.04432001e+01, 1.72150338e+00, 1.12159996e+01, 1.70544541e+00,
          1.18128004e+01, 1.80536866e+00, 1.17888002e+01, 9.10842419e+00,
          9.71360016e+00, 3.44505072e+00, 1.15872002e+01, 1.55614781e+00,
          1.28912001e+01, 7.07221746e-01, 1.23648005e+01, 1.22430432e+00,
          1.29231997e+01, 4.73816156e-01, 1.21487999e+01, 1.55185652e+00,
          9.11999989e+00, 2.39799905e+00, 3.67439995e+01, 5.28309479e+01,
          1.64575996e+01, 2.38688793e+01, 3.92080002e+01, 5.55350838e+01,
          2.32688007e+01, 3.80587921e+01, 1.25936003e+01, 1.35927892e+00,
          9.81120014e+00, 2.22269082e+00, 5.53456001e+01, 4.45016022e+01,
          6.38288002e+01, 4.27832260e+01, 4.18815994e+01, 1.17681084e+01,
          6.26912003e+01, 4.86532440e+01, 1.25663996e+01, 3.42636704e+00,
          1.13408003e+01, 2.39011621e+00, 4.10335999e+01, 5.28611526e+01,
          5.24752007e+01, 5.33889275e+01, 4.10751991e+01, 5.56145821e+01,
          5.67823982e+01, 6.04858246e+01, 1.30656004e+01, 4.45283031e+00,
          1.09600000e+01, 2.29015279e+00, 5.35936012e+01, 5.75157280e+01,
          4.55359993e+01, 5.59901352e+01, 4.88912010e+01, 5.35727768e+01,
          4.08848000e+01, 5.39063454e+01, 1.54575996e+01, 2.27723575e+00,
          1.09119997e+01, 2.23934269e+00, 5.32831993e+01, 4.55933838e+01,
          4.72991982e+01, 1.79804802e+01, 5.74976006e+01, 4.76094475e+01,
          6.37263985e+01, 4.92120667e+01, 1.71152000e+01, 7.36366272e+00,
          1.16991997e+01, 2.01651168e+00, 2.53232002e+01, 3.97386398e+01,
          3.72416000e+01, 5.28306046e+01, 1.28352003e+01, 6.08815575e+00,
